%YAML:1.0
feature_id: 1
trained: 1
parameters:
   pcaComponents: 10
   bp_dw_scale: 1.0000000000000001e-01
   bp_moment_scale: 1.0000000000000001e-01
   rp_dw0: 1.0000000000000001e-01
   rp_dw_plus: 1.2000000000000000e+00
   rp_dw_minus: 5.0000000000000000e-01
   rp_dw_min: 1.1920928955078125e-07
   rp_dw_max: 50.
   hidden_layer: 1
   layer_neurons: [ 100, 100 ]
   alpha: 1.
   beta: 1.
   activateFunc: 1
mapping: [ "86b39867-2bc3-476b-a4e1-066b5a0db02c",
    b6d524c9-0015-4357-acfe-c3cafa0ee28d ]
mlp: !!opencv-ml-ann-mlp
   layer_sizes: !!opencv-matrix
      rows: 1
      cols: 4
      dt: i
      data: [ 100, 100, 100, 2 ]
   activation_function: SIGMOID_SYM
   f_param1: 1.
   f_param2: 1.
   min_val: -9.4999999999999996e-01
   max_val: 9.4999999999999996e-01
   min_val1: -9.7999999999999998e-01
   max_val1: 9.7999999999999998e-01
   training_params:
      train_method: RPROP
      dw0: 1.0000000000000001e-01
      dw_plus: 1.2000000000000000e+00
      dw_minus: 5.0000000000000000e-01
      dw_min: 1.1920928955078125e-07
      dw_max: 50.
      term_criteria: { epsilon:9.9999997764825821e-03, iterations:1000 }
   input_scale: [ 7.9409472050411708e+01, -1.0068397641896663e+00,
       1.9900330991151688e+02, -1.9564964312970312e+00,
       1.8238814729376304e+02, -1.3368842482614853e+00,
       1.2848821737176411e+02, -1.4918178106085187e+00,
       1.1658427977585622e+02, -1.2940848772958897e+00,
       2.5873057949642913e+02, -1.3289775105334347e+00,
       1.2314097038283394e+02, -1.5201659143539563e+00,
       1.7812124891211110e+02, -1.7177112177821521e+00,
       2.8135027532768316e+02, -2.3268525317133499e+00,
       2.6435940711424161e+02, -1.6336648422536761e+00,
       2.2454222009083881e+02, -2.2678779470194734e+00,
       1.6378819176371553e+02, -2.2321593441450496e+00,
       2.5600913387596552e+02, -1.9189226778322104e+00,
       2.3084680060904424e+02, -2.7456475993514049e+00,
       1.3815226312958816e+02, -1.2075040363297778e+00,
       1.6516984067001152e+02, -1.6933897409606204e+00,
       1.1983985760602550e+02, -1.9660164602989931e+00,
       1.1745800737304408e+02, -1.7430940934058012e+00,
       1.4213983598986766e+02, -1.5807396509477485e+00,
       2.1451574003756116e+02, -2.9499087653873497e+00,
       1.5496760619543915e+02, -1.5450204900023454e+00,
       1.1988001190729548e+02, -1.5370294302872556e+00,
       1.7750077464564507e+02, -1.4595828808318074e+00,
       2.2996926658865860e+02, -1.7005624982113465e+00,
       1.3261405966127751e+02, -1.2108005925144987e+00,
       1.2529397236750683e+02, -1.1037747016217581e+00,
       1.0355424411133997e+02, -1.5833824248282307e+00,
       1.8056241086755938e+02, -1.5954942653410686e+00,
       1.4027210323846322e+02, -1.2402750598092001e+00,
       1.1016704858336271e+02, -1.4295755573288456e+00,
       2.8595129024359983e+02, -2.2707363411843571e+00,
       1.6890352086780109e+02, -1.2311512238513804e+00,
       1.7859445641056573e+02, -1.7911684797178407e+00,
       2.0353956229244369e+02, -1.9343943097368590e+00,
       2.3280828752252140e+02, -1.8227499680539454e+00,
       1.0486103391574380e+02, -1.0969468145732300e+00,
       2.0374499491505259e+02, -2.2604680444152394e+00,
       9.8079244738930925e+01, -1.1091902963473528e+00,
       2.3768218912107932e+02, -1.7527108732526557e+00,
       2.5489323526107157e+02, -1.1598602539979173e+00,
       1.5913481555278270e+02, -1.9478566295521631e+00,
       2.3759121466786516e+02, -2.3878725709371627e+00,
       1.1055460347685275e+02, -9.6064120941438014e-01,
       1.0854186662530932e+02, -1.2652426497818352e+00,
       1.5806027779177214e+02, -1.3655833430411182e+00,
       1.7888224870333633e+02, -1.7045972367175402e+00,
       1.5936815396914938e+02, -1.3219385956023195e+00,
       1.4169953831332342e+02, -1.6595783362533452e+00,
       2.1836476817107203e+02, -2.0031882229343707e+00,
       8.7624936464738624e+01, -1.0051902882715331e+00,
       8.4135664590944359e+01, -9.7398490037685181e-01,
       2.0185435797555738e+02, -1.2717282130469652e+00,
       1.6314858312629394e+02, -1.2956827730862057e+00,
       2.4217373837454829e+02, -1.9083255816127154e+00,
       1.0997731362072378e+02, -1.1615129763760350e+00,
       2.0192599456768298e+02, -1.8285688654014449e+00,
       1.4930682349673057e+02, -1.0174704115178619e+00,
       1.1369372188366469e+02, -1.4876556380253447e+00,
       1.2500482728016354e+02, -1.3815931474496421e+00,
       1.4919646415634330e+02, -9.6097717041127040e-01,
       2.3630658349578198e+02, -2.5986944088179871e+00,
       1.0415278665837130e+02, -1.4908775819145073e+00,
       2.3267547806584145e+02, -1.3294473676148801e+00,
       1.4353871948797399e+02, -1.1168650438892600e+00,
       1.9240523499471038e+02, -1.7082554572675690e+00,
       2.0585161740035389e+02, -2.2865716755162144e+00,
       1.8160613585681972e+02, -1.7187358268894570e+00,
       1.8417725941414994e+02, -1.3835039281535897e+00,
       2.0298567109831947e+02, -1.9424630684487374e+00,
       8.4669989141284049e+01, -9.8631338493541987e-01,
       1.4682057996931579e+02, -1.6668705958716667e+00,
       2.0084725765686287e+02, -1.7759355432094466e+00,
       8.1003445403513865e+01, -1.0361230321101074e+00,
       1.5070900493866986e+02, -1.6051244942403833e+00,
       1.4953387587059629e+02, -1.3813526557651541e+00,
       1.7650116147693200e+02, -2.1727876982296044e+00,
       1.3523975367764024e+02, -1.7843158732177342e+00,
       1.6736419619403119e+02, -1.4294915017835983e+00,
       2.3140715133242196e+02, -2.4111853363551541e+00,
       2.7729231063362187e+02, -2.5976240892643174e+00,
       1.3866309145431777e+02, -1.8869341448200878e+00,
       9.4232872613808823e+01, -1.2025331813685092e+00,
       3.3100100700748237e+02, -2.8910640091418665e+00,
       1.2141717074297071e+02, -1.1389246871209240e+00,
       1.1609998305807149e+02, -1.4841969965769060e+00,
       2.5141242474526615e+02, -1.9191163595610083e+00,
       1.1275907507723454e+02, -1.3982599508760989e+00,
       1.9782474515228418e+02, -1.6506312297134709e+00,
       1.5369034774433365e+02, -1.2956208642143765e+00,
       1.2174608608792019e+02, -1.1201025453428739e+00,
       1.2188683008081127e+02, -1.2245610151345363e+00,
       1.2068538469556962e+02, -1.1169715769100426e+00,
       2.1009815343246032e+02, -1.8381764146213977e+00,
       1.3641326288498689e+02, -1.2009668980627874e+00,
       1.8399168190008746e+02, -1.3830615223823690e+00,
       1.3425675202535004e+02, -1.8038049268744301e+00,
       1.4401102716864901e+02, -1.3424868746941641e+00,
       1.6080583034753886e+02, -1.3324023964326575e+00,
       1.1676956651629992e+02, -1.3216934260508384e+00,
       1.5348217061083375e+02, -1.8572410315615004e+00 ]
   output_scale: [ 1.0526315789473684e+00, 0., 1.0526315789473684e+00,
       0. ]
   inv_output_scale: [ 9.4999999999999996e-01, 0.,
       9.4999999999999996e-01, 0. ]
   weights:
      - [ 2.8746139604986082e-01, 1.1020833976434945e-01,
          1.0051320005550550e-01, -1.5307011554488731e-01,
          -1.0498086927829774e-01, 1.6470269533197671e-01,
          8.0394656872189649e-02, -1.7050721205072647e-01,
          -2.3166585377692975e-01, -2.1078735559074152e-01,
          2.1892640122710688e-01, 2.9717989619522694e-01,
          1.0784267955656478e-01, 8.6040609438056484e-02,
          8.4925302127621852e-02, 9.0167337350680943e-02,
          -2.3354993242965996e-01, -1.0230808258350539e-01,
          2.9604438086514989e-01, 2.0981582130781934e-01,
          8.9179640189364154e-02, -2.0923425759085859e-02,
          -2.3272285530495646e-01, 1.0619615927823307e-01,
          2.6908166249013826e-01, -1.2900825472902722e-02,
          -3.1850140737110294e-01, 2.7771795453091558e-01,
          -1.0899125027752359e-01, -6.5998445927443722e-02,
          9.8234662453729513e-02, 6.4414871135344137e-02,
          1.6348133275093779e-01, -2.9971479816369778e-01,
          1.0332378138319311e-01, -5.5919529236616715e-02,
          -1.1487239825337538e-01, -9.8402150270870986e-02,
          -3.3168139769693450e-01, 1.0094863546995926e-01,
          2.1722446768875706e-01, 9.7474371037951160e-02,
          1.5352419868851269e-01, -3.0489201097816843e-01,
          -2.5613931563599041e-01, 2.9408133282354953e-01,
          -1.5374484241212932e-01, -1.0665900609664335e-01,
          1.0702018701979883e-01, 2.6903647517252421e-01,
          1.4425802964060225e-01, 7.6055754303873527e-02,
          1.4449580428442141e-01, 2.7955062424266974e-01,
          -3.1196191903282033e-01, -9.2987142833367134e-02,
          -2.6142710650735501e-01, 2.9395958228614899e-01,
          1.6747959664614698e-01, 1.9113243084999215e-01,
          1.8895839422341673e-01, 1.6236888763859375e-01,
          1.0441171809649223e-01, 2.2801796422039355e-01,
          -2.8655539861174428e-01, 2.4441786763051360e-01,
          -9.3625269185718132e-02, -7.4904549044419719e-02,
          8.1124472080594312e-02, -8.3777476388871716e-02,
          -9.2520961308395891e-02, -4.2508895768173716e-01,
          2.9063763658546171e-01, 2.0880498166273156e-01,
          -3.1787848801802643e-01, -9.3585237773901361e-02,
          8.9738550930693564e-02, 9.2771904373707817e-02,
          -8.5356945424699501e-02, 7.0943284988217087e-02,
          2.4579272218477546e-01, 3.1256749722990601e-01,
          -1.9223189623285347e-01, 2.7819530514267538e-01,
          9.2146955484317880e-02, 1.6796585746154877e-01,
          2.3863922048856656e-01, -2.9177511400006695e-01,
          3.1276048342678536e-01, -1.5708209874736095e-01,
          -3.2570848636381344e-01, 7.6843781576538275e-02,
          -2.8360575350582606e-01, -2.2214686484574597e-01,
          2.5756744593630226e-01, 3.0025193155291496e-01,
          -8.2572118554841298e-02, -2.2957545627634074e-01,
          7.8738048641441502e-02, 1.1930374878920469e-01,
          -1.3235477834685724e-01, 1.3650761985164295e-01,
          1.7941099213718470e-01, -1.1395487108790350e-01,
          -1.9285537879858977e-01, -1.2718560676157015e-01,
          1.0999697830359531e-01, -1.7752519692077037e-01,
          5.0198455934235192e-02, -3.6358230275783499e-01,
          -3.7601380363261411e-02, 9.0827696350163922e-01,
          1.3364018801215014e+00, 1.1098587843174854e-01,
          2.3164145758848997e-01, 1.2860353735279259e-01,
          2.6387720113165966e-02, -1.0264506908687664e-01,
          2.7031844962684320e-01, -1.4225420970061359e-01,
          1.0559950035429509e-01, 1.1820438395426922e-01,
          1.8044271348281679e-01, 1.0409614325783838e-01,
          2.8684038148497754e-01, 5.8562520934032442e-02,
          2.0268416493688987e-01, 2.9025221608230634e-01,
          -1.0095409523187353e-01, -1.1896078362641488e-01,
          1.4411638071795607e-01, 2.4908900694266892e-01,
          1.2330326630545896e-01, -2.6720492898610421e-01,
          1.0978456194814533e-01, -5.7700472630937871e-01,
          -1.3650912771379231e-01, -2.2402296050002835e-01,
          1.3275539730187497e-01, 1.0827843991451035e-01,
          -4.1343173845897779e-02, 7.4566029764833716e-02,
          1.6883463609197177e-01, -1.4023380566938365e-01,
          -6.4277609512594751e-03, 2.9505163215068675e-01,
          -1.2524818877841546e+00, -2.0174533606024142e-01,
          8.6201662293236503e-02, -5.4560225888472341e-02,
          1.6897024144653158e-01, 3.0882137516699076e-01,
          3.7561368814221030e-01, 2.6383486933692168e-01,
          6.7110813165637356e-02, -9.4941552552883238e-02,
          -1.2148650614099940e-01, 3.0013906777444477e-01,
          1.2331019916811170e-01, -4.7243661274620263e-02,
          -3.0379068786161489e-01, 1.0736293012748679e-01,
          1.5043743409527810e-01, -2.3498618527018833e-01,
          1.4113547166213120e-01, -8.2861958283756199e-02,
          -1.1439434040515586e-01, -1.3937753588428287e-01,
          -1.9517518939311967e-01, -1.1005456853406818e-01,
          -2.3611745751087940e-01, 6.1219324066784084e-02,
          -2.4935418224293832e-01, -1.3322021814267693e-01,
          5.0531108479929171e-02, -9.7089535498342996e-02,
          2.0635111765728492e-01, 1.0983914363174678e-01,
          -6.5009652844969026e-02, 1.8843197509719656e-01,
          2.5346452963853233e-01, -5.8921145425892912e-02,
          1.9492007725137314e-01, 5.8891231586558609e-02,
          3.1485106104507687e-01, 1.4796965017597102e-01,
          -1.4373924022902460e-01, 3.7242581807096581e-02,
          -6.7404737530135983e-02, 7.2741459889809221e-02,
          1.8143540467141436e-02, 1.3489280548864174e-01,
          -2.9855249010895824e-01, 5.7678135108158529e-02,
          -1.8574146476649556e-01, 2.7743744922391483e-02,
          6.2846820219942034e-02, -1.6070210674379914e-01,
          1.1719596212635679e-01, -1.8618764794076897e-01,
          -2.3256521846821021e-01, -1.1377231402680878e-01,
          -1.0624153407884267e-01, 3.9304098354381589e-01,
          1.0987081496564334e-01, 3.6885884155807447e-01,
          -8.3297029548836790e-02, 7.3432218230194232e-02,
          3.0426529677202185e-01, -1.4433594469589239e-01,
          -2.1492326408437457e-01, -2.5604002188286505e-02,
          -1.1165733042080972e-01, -9.9765364486901639e-02,
          -9.9035387168761271e-02, 1.4091841607629055e-02,
          2.2370703971204148e-01, 8.8052338706894176e-02,
          -8.1856942343089115e-02, -2.0875823827955731e-01,
          -1.0739324176598096e-01, 2.0178600949618619e-01,
          1.7942225989407401e-01, -3.5180984070546056e-01,
          -1.1311201672579342e-01, 2.5071130836515138e-01,
          3.1952097710876737e-01, -9.4380679395457176e-02,
          1.1230318597911947e-01, 6.4139467750478601e-02,
          -7.6903734834864512e-02, -7.6381702150404643e-02,
          -3.9489035686831386e-01, 1.0183556001182324e-01,
          -1.0512293148164208e-01, -8.6894325193824784e-02,
          9.4562694103333136e-02, 4.6617126301673077e-02,
          3.2321463571968401e-01, -1.0339638562266569e-01,
          -3.3709396938551167e-01, -1.0454977486616547e-01,
          -8.7735603304730000e-02, -2.3887230610372595e-02,
          1.8252429408778464e-01, -9.1188738683900691e-02,
          -2.1109671405425043e-01, 1.0055202927760142e-01,
          -8.6940532361016606e-02, -2.8633493090053502e-01,
          -7.1078674975710535e-02, -8.2833077151087842e-02,
          -1.1238192314115768e-01, -9.6507887044426574e-02,
          2.9903772380064342e-01, 9.7078542905273194e-02,
          3.0990697191260375e-01, -8.4999699024746453e-02,
          -1.7950976539248464e-01, -2.1532014840207364e-01,
          -2.6726361564399315e-01, -3.9060290948665322e-01,
          -8.1650190101965711e-02, -2.0101475745408293e-01,
          2.8850393743450770e-01, -2.9669714896309762e-01,
          9.2642386535132779e-02, 7.7723965075007895e-02,
          -7.6829956300736649e-02, 9.9692213551194661e-02,
          7.4223439288858981e-02, 3.0939689103906909e-01,
          -2.4901256083955259e-01, -2.3098201802712082e-01,
          2.8870035785268244e-01, 1.0534028171816674e-01,
          -1.0907132330250836e-01, -8.6918261650393361e-02,
          7.1696528852364938e-02, -5.0885526337606478e-02,
          6.4323149438477656e-01, -2.8603651786936335e-01,
          1.9039767179427371e-02, -1.9015371788809798e-02,
          -1.0266221051283708e-01, -7.0295228978199439e-02,
          -2.6661787972316292e-01, 2.8572805142717100e-01,
          -2.9920926786666380e-01, 2.2825673972649302e-01,
          2.8790008337547096e-01, -8.1278838918336593e-02,
          1.0680070993500081e-01, 2.7617955978435743e-01,
          -3.2552741510716654e-01, -7.6639802787258615e-01,
          1.5939324696729062e-01, 1.0728523151802877e-01,
          -7.6105779472913915e-02, -1.9713288254158767e-01,
          1.3511957912188335e-01, 1.4672375914120842e-01,
          1.0354806981814120e-01, -1.1326942260390735e-01,
          -1.0048287194534990e-01, 1.6825866828610134e-01,
          1.1063853937236863e-01, -1.4790203121765527e-01,
          -1.4806287286327843e-01, -4.4914053590319775e-02,
          1.5324229302481313e-01, 3.2669315052497294e-01,
          7.8264994184675127e-02, -1.3654203482898742e-02,
          1.3002347948600035e-01, 9.6500860164134172e-02,
          -1.8321565542464580e-01, -7.6036313555384608e-02,
          2.8305160133783158e-01, 1.3369885853432636e-01,
          1.2366395293939425e-01, -5.7210456467159373e-02,
          -1.5564862612671190e-02, 8.7904954981385022e-02,
          2.6681875984650033e-01, 5.5116227155026926e-02,
          -1.7705375268590004e-01, 2.8416556847848901e-01,
          -7.4015009730652725e-02, -1.1627108916426450e-01,
          1.7527531797927728e-01, 2.4993689225689349e-02,
          1.1038148183600230e-01, -3.0040040475179741e-01,
          7.7214037446872150e-02, -1.1214737224349934e-01,
          -1.0638718257661627e-01, -9.1964430921082502e-02,
          -1.6089156341252894e-01, 9.9142462122078653e-02,
          2.0333523917469365e-01, 8.1046231517197961e-02,
          1.5819006242542388e-01, -1.5250310681953907e-01,
          -8.3821840052097751e-02, 2.6369021964637368e-01,
          -1.4747278815957093e-01, -1.0219796961616241e-01,
          1.3018825453571728e-01, 2.3864013675674356e-01,
          1.5791569420158896e-01, 1.0195767790200234e-01,
          1.2249044339172301e-01, 2.8484620216050643e-01,
          -1.4532964238212301e-01, -1.0312368044263000e-01,
          -1.1090171835074453e-01, 2.8866471532679577e-01,
          1.3726268318883872e-01, -7.8423522039333712e-02,
          1.4830761691454983e-01, 1.1477135867489210e-01,
          7.4913141461157295e-02, 1.5692313248220044e-01,
          -1.4647564782870606e-01, -7.7189285433727151e-01,
          -1.1198881417365322e-01, -9.2059978005514007e-02,
          -1.7964012277107042e-01, 1.1667024744499727e-02,
          -7.6634929557294632e-02, -1.7441826666076612e-01,
          1.3309277592223265e-01, 1.3736400344519248e-01,
          -1.3187679731215815e-01, -7.8021256468924952e-02,
          9.8155943217055966e-02, 8.0118919555492954e-02,
          -8.0276773151018985e-02, 5.1290584203281718e-02,
          2.4686852211857238e-01, 1.5260180086467998e-01,
          -1.3384002901827594e-01, 4.5829195921642113e-03,
          1.2549811151225576e-01, 1.4419759888015360e-01,
          1.2967704810577826e-01, -1.6357254277692029e-01,
          1.8772676389149021e-01, 6.7234282181018817e-02,
          -1.9745250248240875e-01, 1.2169093292327178e-01,
          -2.9948038220342771e-01, -1.6240559838364882e-01,
          1.3520772658614869e-01, -3.2933680179502503e-02,
          8.5415989023012381e-02, -1.3756824876339166e-01,
          1.5185366409531903e-01, 1.0521924928958634e-02,
          3.4688216569988467e-02, 1.1806382698322884e+00,
          3.5458152373607721e-01, -4.1419553152937605e-01,
          -1.0976910830723412e+00, -3.2400307699611286e-01,
          1.2076253569151179e+00, -2.0486137479520788e-01,
          6.5236198181699984e-02, 5.3118065865647435e-01,
          1.8038307476516119e-01, -3.9867633582663636e-01,
          1.1952268071639104e-01, 1.1110018793225742e+00,
          1.1955652329752093e+00, -5.4419082086248582e-01,
          -2.0515085822624529e-01, -1.0804309148746278e+00,
          2.2302449828210408e-01, -7.2396203780478521e-02,
          3.7561140148176886e-01, -5.2374276489814753e-01,
          1.1612963248230336e-02, 1.1167985980563238e+00,
          1.5067990221848707e-01, 7.7123789780835214e-02,
          -3.6719918310162880e-01, 4.9637000918184365e-01,
          -1.5378868042630778e+00, -7.1308364978607686e-01,
          3.8455640144533698e-01, 5.6421965788246320e-02,
          3.9190568064642040e-01, -1.3118687287732747e-01,
          1.0800860198268549e+00, -1.1102992768321009e-01,
          -3.8373628723712483e-01, 7.3188176366203977e-02,
          -2.5681871159746943e-02, 1.0876709255709640e+00,
          -4.9276120504631099e-03, 1.1122241668910187e+00,
          1.7239428138156576e-01, 1.7447578268069724e-02,
          2.4963386897770411e-02, 1.3821667039175983e-01,
          1.9978082319262008e-01, -1.0150972706687182e-01,
          3.6961512893526222e-01, 3.7520139165179586e-02,
          3.1529697404832957e-01, 1.2405350100278460e-01,
          1.4856320419728575e-01, 1.4600185998776846e-01,
          2.0997055909037835e-02, -1.0956108609199124e+00,
          -2.7547149315925529e-01, 1.5268592430842640e-01,
          4.0237442290828418e-01, 1.5582689830481167e-01,
          -7.3767655369367358e-02, 3.9569017226553294e-01,
          1.0832929111502785e+00, -1.2592359660215829e-02,
          2.1091378153682217e-02, 2.9353837928456245e-01,
          -1.2124591913927640e+00, -3.3684386834791086e-01,
          -3.7367943833158879e-01, -1.5326547617989692e+00,
          -1.8880044960757542e-01, -2.8985168794440630e-01,
          -1.2627574846333625e-02, -6.8383050731636627e-02,
          -1.5979585770891028e-01, -1.1089761683073833e+00,
          3.4516929213072800e-01, 1.0814897925129641e+00,
          -4.6142059921301076e-01, 4.7548389526829693e-01,
          5.9013600211012907e-01, 8.6002739110907864e-03,
          1.2686780404615549e-02, 3.4218413225041322e-02,
          1.2589432868594772e-01, 5.9758038769689348e-01,
          2.6210542699966433e-01, -2.3183363968175152e-01,
          3.0265368783570357e-01, -1.7908146357884036e-01,
          -2.8168210841123131e-01, 1.2069822685781795e+00,
          -1.9539954798000922e-01, -1.7485860472725934e-01,
          3.1484201479198082e-01, 2.8846204191283886e-01,
          -1.5021584570527757e-01, 1.0684824765289641e-01,
          3.9234637154498303e-01, -3.8146207264365316e-02,
          8.8072085394282160e-03, 7.1241125412051209e-01,
          7.1588397475630533e-02, -1.0607350639730759e-01,
          -5.1524063852368705e-02, 8.2566636752763142e-02,
          4.2613089525924985e-01, -6.0575766579939194e-01,
          7.0097936890763352e-02, 3.7019388852937496e-01,
          -1.4976718365190830e-01, -2.1454354398348166e-01,
          -2.2904561812108831e-01, 2.8583034912914135e-01,
          4.2990710037758306e-01, -5.2574955610786223e-01,
          4.0214271818784758e-02, -7.2377407407070687e-02,
          2.5144080661258711e-01, -5.5266953454230022e-02,
          2.4645423362717275e-01, -2.9496839775429806e-01,
          1.9613446038158001e-02, 5.8774342414888180e-02,
          1.8747272180220814e-01, 4.5351522386443971e-01,
          -1.3726216924158588e-01, 1.7557165028051958e-01,
          -4.8845742985555712e-01, -1.9037231270843560e-01,
          7.2007683630603303e-01, 1.3389026592132086e-01,
          9.6024623442691165e-02, -3.3965201139065471e-01,
          2.6427403254558396e-01, -1.2054803570456039e-01,
          -4.4893178832124492e-01, 7.2639695171325930e-02,
          -1.8554935452483500e-02, 2.5351126804978957e-01,
          -4.3815330020939491e-03, 2.3174566303983657e-01,
          5.9739803757975962e-01, -1.1583689897515707e-01,
          2.5109419585388863e-02, 3.7561118256281822e-01,
          -9.5262505206134440e-02, -3.1496844798316048e-01,
          4.2834105413725776e-01, 3.5366319307992666e-02,
          2.9478610478749179e-01, 1.2291386745854428e-01,
          -7.1827143619612066e-02, 3.6289852344361873e-01,
          4.7183920960483627e-02, -5.8931684992669674e-02,
          4.6438077916333143e-02, 3.5574046281598826e-01,
          -2.2416338476531586e-02, -2.2326831336626551e-02,
          -5.4378211554956396e-02, -2.0533698950223417e-02,
          4.0224697276936167e-01, -4.8207724351470721e-02,
          4.2715850246823214e-02, 3.3016679219919867e-02,
          -4.3698305298117346e-01, -2.1952669304251443e-01,
          -1.8098703462081092e-01, -3.7807617294958945e-01,
          -5.8913221436207169e-02, -3.5117174040173824e-02,
          -2.3971679097299057e-02, -7.5603272983918612e-02,
          5.6610938124224949e-02, -2.4124817041327451e-01,
          2.1603095774082745e-01, 2.3788791628220451e-01,
          -2.4618877676152620e-01, 4.9688949255486302e-02,
          2.1497564788376475e-02, 1.7962639098690430e-02,
          2.5257830777328866e-02, 4.6129150939692630e-02,
          -1.7651624171119756e-01, 4.7021365601443282e-01,
          -3.1001072846137310e-03, -4.6945341916470172e-02,
          8.3294984600923022e-02, 3.7401477709663650e-02,
          -5.2140263323324804e-02, 1.7034428275057131e-01,
          -3.5688731223055270e-01, 3.2966953130963896e-03,
          6.2360551117664820e-01, 1.4448478747311691e-01,
          3.2562944296715374e-01, 6.9579198925370150e-02,
          1.6551570665133833e-01, -2.3262853436424192e-02,
          2.6079538796894976e-02, 7.3471015400858697e-01,
          5.4140729963994799e-02, -1.0432786150272341e-01,
          -7.2027677831180609e-02, 7.2261753665990677e-02,
          1.2103844292765211e+00, -6.0370149799996287e-01,
          5.4270013467620240e-02, 2.1698281735056840e-01,
          1.8167812162149882e-01, -1.5954055113628640e-01,
          9.1932927211437962e-02, 1.1076577757808574e+00,
          1.1912132344491992e+00, -7.5996610136357012e-01,
          1.7662050172578724e-02, -1.0810133925808914e+00,
          2.0414086311907381e-01, -7.0857221078519508e-02,
          1.2031971174006773e+00, -1.4831597363711671e-01,
          2.8062541569239159e-02, 7.1463821433733338e-02,
          4.8556635142938714e-01, 8.1239987114051601e-02,
          -6.2326391528010272e-01, 5.0641142558567986e-01,
          -1.5368939133336506e+00, -4.3466576168946813e-01,
          7.1268828936030881e-01, 3.6524925642879730e-01,
          1.2468049763324447e-01, -5.0559056332869323e-01,
          1.1168158438424318e+00, 6.7217191853173819e-02,
          -1.2104851639681511e+00, 6.5673125843676905e-02,
          -2.5126735073304384e-02, 1.1097529347749560e+00,
          -1.0880302410994563e-02, 1.0918050643467514e+00,
          6.2093946737933781e-01, -8.1220387708040118e-02,
          1.3622824825169459e-02, 1.5637012866421254e-01,
          1.9342632451142205e-01, -5.7425793252682089e-01,
          1.1825172962881851e+00, 2.3522809410640000e-02,
          1.8053480440210373e-01, 3.9068750203380903e-01,
          1.5294662406186332e-01, 4.9132724106407094e-01,
          6.0115379057808907e-02, -4.7883608280846590e-01,
          -2.7461449668266669e-01, 5.0053781473899406e-01,
          1.8254335097287649e-01, -2.2303878780060377e-02,
          -7.3111618338105672e-02, 4.0142486168064462e-01,
          1.1155468280980902e+00, -5.3687173822094272e-02,
          4.6035460943193315e-02, 2.9534438169692773e-01,
          -1.1978148910809845e+00, -4.8669492490528565e-01,
          -4.1262272599189087e-01, -2.3511734188178561e+00,
          -8.2092284789014791e-01, -3.0873040556008219e-01,
          -1.6664193676430867e-02, -7.2558144588918461e-02,
          7.3954555007641420e-02, -6.4223590158577926e-01,
          4.5173495920333684e-01, 1.0792328172298928e+00,
          -4.5948081782343814e-01, 7.8535226041581946e-02,
          5.8709645417199652e-01, 3.3025536285513211e-02,
          -7.7620793152267291e-04, 4.2351040463944667e-02,
          8.7417379320568520e-02, 6.3081508694169641e-01,
          1.9163344430770671e-01, -2.8594529324871898e-01,
          4.3063772746702478e-01, 2.8171552108875463e-02,
          -5.3180097494406969e-02, 1.2092876823463856e+00,
          -1.5904717578356312e-01, -1.8843860368933331e-03,
          3.2156067560496671e-01, 6.3825554606911106e-01,
          5.2790573834946578e-02, 1.2956010456860934e-01,
          1.2129529586507244e+00, -1.6902472815595961e-02,
          -2.9934140727169367e-01, -7.8929964864714763e-02,
          -1.0589004105563093e-01, 2.2720067864020699e-01,
          9.7749015801226857e-02, -1.6849144816519537e-01,
          -1.0909631377020572e-01, 1.6499248134580013e-01,
          2.0676553441670212e-01, 1.6283472678349808e-01,
          1.9377726921272315e-01, -4.4587180820523598e-02,
          2.3476327118721793e-01, -1.7858914747734872e-01,
          -7.4985885136752181e-02, 2.8580794313558047e-02,
          1.9059275426483979e-01, 1.3779485162603147e-01,
          -2.8254176450559437e-01, -5.8126363467010922e-01,
          -1.0001428622125945e-01, 2.6680341444621572e-02,
          5.8062348532323749e-01, -1.9264975047052213e-01,
          -2.8441486546375488e-01, -7.9653880509940989e-02,
          1.7493590801196512e-01, -2.6481884364332203e-01,
          9.8284059122763973e-02, 4.5780139718289987e-02,
          -8.1203357013587454e-02, -8.3686566674366081e-02,
          -2.1234850919326653e-01, 2.7274339742300691e-01,
          -1.8101791750470753e-01, 1.1156529588570617e-01,
          1.1024617092104903e-01, -3.4793929069412664e-02,
          3.1389753493478878e-01, -1.9439551624016022e-01,
          -2.2610534901192741e-01, -2.0797293604963496e-01,
          -1.7423712930070631e-01, 1.3920443009765388e-01,
          5.6294840473490571e-01, -2.6672111714215596e-01,
          1.8072976228985013e-01, 9.7781843132826229e-02,
          -9.3346240886835755e-02, -2.6114270309849241e-01,
          -1.5720044803942096e-01, -1.0668733861520369e-01,
          -1.6272121748248408e-01, -2.9148602120549666e-01,
          1.8542605919332852e-01, 1.2610365261054593e-01,
          -8.1499206533003812e-02, -2.8262881416890911e-01,
          -2.2552525088065845e-01, -2.0721267427138473e-01,
          -1.4232620790780445e-01, -2.0601285195612479e-01,
          -9.9986494667605438e-02, -5.7183229828405746e-01,
          1.9607068238309019e-01, -1.7883540369357900e-01,
          9.3552890222593540e-02, 8.3633636591640304e-02,
          -5.8599777029224628e-02, 1.5133644517230893e-01,
          7.6516336705904020e-02, 2.1377500204447406e-01,
          -5.8878864961358357e-01, -1.6135996575776143e-01,
          2.0556893559229031e-01, 2.0182299415422328e-01,
          -1.0014407639543381e-01, -2.1479500170678850e-01,
          3.0199640482181983e-01, -8.5268443190962828e-02,
          -3.0990697505808440e-01, -2.8622575365267078e-01,
          5.5984255529082894e-01, -3.4470338354267482e-01,
          2.4017421089892857e-01, -1.6407379748787326e-01,
          -1.8992442615326635e-01, 1.7854897821850660e-01,
          -2.3431748430704555e-01, 2.1292792003379135e-01,
          1.9526590498537841e-01, -9.8938160612467380e-02,
          2.6817714328006242e-01, 1.9589110204609400e-01,
          -1.5678813224525920e-01, -1.9869739496248695e-01,
          -4.7708509725103085e-02, 1.4715093089264628e-01,
          -9.5841552575199343e-02, -5.9127856412194180e-01,
          9.4090662321364163e-02, 4.5533250480628196e-01,
          2.9631880110093711e-01, -6.3613106744895398e-02,
          -5.9546733091388226e-01, -2.9546268062630765e-01,
          4.2657690339396082e-01, -2.8519360293623069e-01,
          -8.0184282162788043e-02, -3.2287774278863368e-01,
          1.1598995756228064e-01, -5.1048614403221015e-01,
          6.4690900775368232e-01, -6.9634389191670530e-03,
          1.1559568665465056e-01, -6.3233034227507778e-01,
          -1.1891852448801092e-01, -4.3880831338027321e-01,
          -1.2705020788174246e-02, -3.0262590284303204e-01,
          2.5203317630728490e-02, 2.4075323096052137e-01,
          2.9823302406805885e-01, 6.0822514059955735e-01,
          -5.6648128016749656e-02, 4.1028017738392469e-01,
          -2.9914944023813700e-01, -4.8482943935237902e-02,
          -8.3050249300739787e-01, -4.1743812672713314e-02,
          4.2883048039545779e-01, 4.9243655171897216e-02,
          7.6409808614482613e-02, 2.5772994194369847e-02,
          5.6143037536495577e-01, 8.9420672694210460e-02,
          -4.5571261704185617e-01, -8.3483585388284778e-02,
          7.2643580475759126e-02, 4.3946399269703673e-01,
          1.2254318501584076e-01, 1.6741439765712305e+00,
          2.7154850385841695e-01, 4.3914586231545383e-01,
          8.2824596525640296e-02, -1.6403072612938011e-02,
          2.5099108079372867e-01, 1.0850118033221347e-01,
          4.5076823555054402e-01, -2.0275626550473924e-01,
          1.1076743416664733e-01, 6.3623768289434793e-02,
          3.3868573551185494e-01, 1.8111535951011887e-01,
          -8.2190623501920509e-02, -6.2329200297886933e-01,
          -1.1071306717971376e-01, -2.6296075673725522e-02,
          3.3007326942697313e-01, 3.1133186723047035e-01,
          8.9028881200121687e-02, 3.0897113628831574e-01,
          9.7181023209221085e-01, -2.9244570804557091e-01,
          -1.1645330458833168e-01, 4.5780251927626536e-01,
          -7.3193836800755840e-01, -3.8338474197056771e-01,
          -3.8719081928710090e-02, -4.3527835295288397e-01,
          -6.3383491702252681e-01, -1.1338162329865428e-01,
          -3.1359107061867530e-01, -4.7826156276401542e-02,
          -1.0093882909954276e-01, -4.6749172483933754e-01,
          3.5754901901408170e-01, 1.6659966024173527e+00,
          -4.4479451585286273e-01, 1.6735153541968604e+00,
          2.3105082002194202e-01, -5.4904677664157653e-01,
          7.7078612430635143e-02, -2.6010577097120541e-01,
          4.1515092928731467e-01, 2.8079269060369977e-01,
          1.0300479166219785e-01, 1.7818323452587703e-01,
          1.0214559600810601e-01, -3.3055641860546869e-01,
          -3.0195322577733069e-01, 2.9451837378268325e-01,
          3.2679359052487422e-02, 1.5025860816896769e-01,
          2.7482832149846448e-01, 2.7607611118211034e-01,
          2.1728286000889480e-01, 6.5770070477940124e-01,
          2.8061054157963777e-01, -3.1120208519126846e-01,
          -5.5273202609375155e-02, 5.7566724979022643e-01,
          9.6439701820330326e-01, 4.9242824201575684e-02,
          -9.4766295315401905e-01, -5.3273840819541368e-02,
          4.9229122052618407e-01, -4.7505995822888131e-01,
          7.3595305880936962e-02, 1.0121687692536938e-01,
          -4.4128204063101784e-01, -2.8086483444703839e-02,
          1.7707539728670604e-01, 3.8190286725606803e-01,
          4.1234255285342752e-01, -2.1956558515144906e-01,
          2.6315259784514090e-02, -9.7226223954768343e-01,
          3.4877611002871428e-01, -7.8269170817155245e-02,
          4.2730727620563935e-01, 4.7676860494643113e-03,
          1.1553012284944908e-01, 1.0547593810921594e+00,
          3.4103347959445374e-01, 7.7920860511247603e-01,
          -1.6572754582079945e-02, 3.7201021404917511e-01,
          -6.5560774747390949e-01, -7.3366088205096647e-01,
          5.6336394803658474e-01, 1.2871420301963471e-01,
          -5.0603339399419335e-02, -3.7690302078417970e-01,
          2.3009674405534250e-01, -1.8766989180578328e-01,
          -7.0398610913063431e-01, 9.4956093495410579e-03,
          2.2474536024613846e-02, 7.3808282107444745e-01,
          -1.8800948342222259e-02, 7.4683197115383959e-01,
          4.7894235128539736e-01, -1.7696804374617969e-01,
          1.1456109078933049e-01, 3.4373477274069208e-01,
          -1.0598707811500961e-01, -3.6866433309111007e-01,
          7.2615461562192607e-01, -2.5734467857376389e-02,
          4.9352302960834210e-01, 3.1495711485267480e-01,
          6.7029101783443276e-02, 1.8290999317592899e-01,
          4.9632529646178092e-02, -3.8953802974079166e-01,
          2.7612085037623613e-01, 3.4902656011809030e-01,
          -4.5657146663181485e-02, -3.3068717092818549e-02,
          -6.7304878630108922e-01, -4.3406235318577173e-02,
          8.2822041088018983e-01, -7.0032425199033743e-02,
          5.7030095188952551e-02, -9.7869598016018661e-03,
          -5.3607007292164544e-01, -5.4014460445686496e-01,
          -3.8991163824672759e-01, -3.9269571867434394e-01,
          7.2216313368313911e-01, -2.8957846075137509e-03,
          -6.4544115372024480e-02, -5.5189737927569774e-02,
          4.1172273423126404e-02, -4.3915313265150413e-01,
          8.3123021740250463e-02, 7.5125305890566230e-01,
          -2.0277662726644757e-01, 7.5505277629758205e-01,
          4.5768291201293110e-02, 2.3598544288447533e-03,
          6.0927332937997819e-02, 2.1622227157336578e-03,
          1.2103818816684046e-01, 4.7210550029927018e-01,
          -5.5221580878731769e-01, 2.5281683388694229e-02,
          2.2505841964987616e-02, 4.8017912549446422e-02,
          -3.3416056899018970e-02, 4.9725661471780686e-01,
          -4.8206102455225769e-01, 4.1207953806937585e-02,
          -3.4916168461771385e-01, 1.8608335871524464e-02,
          7.1271220740064245e-01, 8.4221631200299074e-01,
          4.3300520486526400e-01, -1.0228705452600531e-01,
          -8.2388153278968812e-01, 3.3495207273084693e-01,
          2.8308397272336450e-01, -8.4598366700873048e-02,
          -3.1199386702508675e-01, 1.3412057602142885e-01,
          3.3947536537381562e-01, -2.2343362954005969e-01,
          8.4109755777884321e-01, 4.3290861973659622e-01,
          -4.1747252237961008e-01, -1.7512314051302222e-01,
          1.0958736099178135e+00, 1.4410452186341335e-01,
          8.2114423407597725e-01, -2.4152876596018408e-01,
          3.5356361852391649e-01, -1.8969606536040143e-01,
          1.7757049332065822e-01, -3.1006704919093708e-01,
          6.4646606726456890e-01, -3.9502710179062822e-01,
          4.4797343660444572e-01, 1.2746543208622291e-01,
          1.8594032664164170e-01, 2.6152431487947753e-01,
          -8.0528301405042649e-02, 1.4865935262190627e-01,
          -2.2503184906259599e-01, -1.8666246034259368e-01,
          3.3926730327825050e-01, 5.6607658320496601e-01,
          1.3648515005673131e-01, -1.3956465742788413e-01,
          1.8533934455751530e-01, -1.3945900130048725e+00,
          -7.0388616325354758e-01, -5.6637463179208383e-02,
          1.5133088532347946e-01, 1.0049302282599508e-01,
          -4.2411284996079412e-01, 4.8780699792698411e-02,
          2.0650500248141074e-01, 1.9496355304764890e-01,
          4.6974205335553815e-01, 1.5790340548709808e-01,
          8.7696799021617589e-02, -2.8607538510983466e-01,
          7.2315564120244569e-01, 5.6049168519761008e-02,
          2.1451678788180623e-01, 8.2403927714238900e-01,
          1.0662580479030472e+00, 1.1877025038223551e-01,
          1.7434504229976514e-01, -3.1773212140515750e-01,
          -3.0068299857991926e-01, 1.7339290494164630e-01,
          8.4111180924079001e-02, 2.6131759290470194e-02,
          -8.4221023271963247e-01, 9.2567820222560410e-02,
          2.0699459973408138e-01, -3.0380008035898809e-01,
          8.3926897959705660e-01, 1.5799163333745248e-01,
          -3.8425166777515468e-01, -3.1708174015329416e-01,
          -1.8334255925228674e-01, -2.1898520047658154e-01,
          -6.1333213840702216e-01, 6.6758114067772420e-02,
          -4.4466680839726919e-01, -3.0608319745783341e-01,
          1.8703929502846040e-01, -1.1152088306591600e-01,
          2.8199339368912962e-01, 5.5212473268521987e-02,
          -2.4630096461227494e-01, 5.5409685026075572e-01,
          2.4853933099009867e-01, -3.1524765360643392e-01,
          3.1730277693582054e-01, -2.1983896002060210e-01,
          1.5762355151909384e+00, 2.2834175512277077e-01,
          -8.3727122205151738e-01, -9.8567508595552161e-03,
          2.2292341151977793e-03, -1.0648338402897065e-01,
          -6.2182730301565015e-02, 2.7149912592132053e-01,
          -1.6606366154044305e-01, -1.6343737251110116e-02,
          1.2807282635098755e-01, 8.4960884709301118e-02,
          2.8498244283549656e-01, 1.1225966391596494e-01,
          3.5540745714556587e-01, -4.4924164179512222e-01,
          -2.1595139460887376e-02, 6.2178677220226786e-01,
          1.3965276164943163e+00, -3.1255345854102834e-02,
          -5.8527381376853593e-01, -5.9686248105378426e-01,
          1.7167744397928604e+00, -6.1558743267868365e-01,
          5.1761846412898750e-02, 1.1633068571227113e-01,
          -5.0731983981168134e-02, -1.1621754373396138e-01,
          1.6645637659653680e+00, 5.6816474130418915e-01,
          1.6363844956377007e+00, -1.2988356474329424e-01,
          2.7232135229603816e-02, -5.7831352326125496e-01,
          1.5533318001580773e-01, 2.8009725838710059e-02,
          1.7089470294141393e+00, -1.3103804309843484e-01,
          2.8526335227694141e-02, 5.9023362484094433e-01,
          4.8827475639078394e-01, 1.9704912560806026e-01,
          -1.0649772696721066e-03, 1.7100902430120513e-01,
          -1.5467481684198805e+00, -1.6954400099314735e+00,
          6.3428518994132288e-01, 1.2540231193018330e+00,
          3.4391505974551095e-02, -4.8544718219867827e-01,
          5.8672460772553903e-01, -2.3442385240824765e-01,
          -1.7008375629194805e+00, 1.2110047356610100e-01,
          -1.3720576960086245e-02, 5.6986233403737208e-01,
          -2.4468212526214797e-02, 5.7594311837945023e-01,
          6.0093055224893921e-01, -7.6951244338411995e-02,
          6.7407305314676619e-02, 5.0025637604519169e-01,
          2.1231247203470482e-01, -6.9301580715600430e-01,
          1.7072402113553806e+00, 4.1437987857290838e-02,
          6.0130523766801902e-01, 1.5462569639617072e+00,
          6.9705876208352224e-01, 1.7834819682858538e-01,
          9.2698134846105548e-03, -6.9162295218400183e-01,
          -2.7950508434362802e-02, 5.1487153317037027e-01,
          4.0468235809679072e-03, 3.7036508802238140e-02,
          -1.2012289507774479e-02, 1.6220156658570684e-02,
          9.5748103886072022e-01, -9.2576148975806599e-03,
          5.3818091340578147e-03, 1.7731788449418605e-02,
          -1.5069189611638114e+00, -1.3943717969672167e+00,
          -1.6876088995824918e+00, -6.5962954746028402e-01,
          -9.5620256897874634e-01, 1.6371067769727323e-02,
          -2.0353922846820166e-02, 1.4062629295043143e-02,
          6.8201941986420411e-03, -5.6451938303605076e-01,
          2.3500525883282863e+00, 5.6231737407180127e-01,
          -4.5074205670997408e-01, 5.5521323021510227e-01,
          4.3699475564649332e-01, 6.8772080856283876e-02,
          -3.4302511097973609e-04, -1.2974937916616761e-02,
          1.0527358611729212e+00, 6.3304587132237966e-01,
          -1.0071856450735668e-02, -8.8807863929004499e-02,
          -4.1114458925497213e-02, -9.4446306032877642e-03,
          1.8828821318221317e-01, 2.1172432413617321e+00,
          -4.9298005862653510e-01, -3.3313644282591232e-02,
          -1.7270308078694518e-02, 4.3934765649004795e-02,
          6.7744168516424463e-01, 6.2990136085785423e-02,
          2.7397288753960254e+00, 5.0424603990427419e-03,
          2.3745632125002811e-01, -9.7653657177946985e-03,
          1.2264078586729865e-01, -2.9665365506665142e-01,
          -3.2589102117956896e-02, -2.4782474053256984e-01,
          -1.5839946779423925e-02, -7.4708777304749938e-03,
          -2.3909854716806497e-01, -8.8382391256999315e-01,
          9.2838717482493144e-02, -2.4553175415471232e-01,
          9.3906046491884754e-01, 2.7034148625913176e-02,
          -2.1385267424944704e-02, -2.0505250787276419e-01,
          -3.2359846344995169e-01, -1.2851552350647322e-02,
          8.0898598776674921e-02, 8.4494985941876169e-02,
          -1.1226968482007925e-02, 4.5010995503375900e-01,
          -2.3975053442857511e-02, -4.3587715755947290e-02,
          2.7960074623068176e-01, -2.5920540084640092e-01,
          -4.4719695587403518e-02, 5.8976622751380901e-02,
          2.6279636548915651e-02, 1.9383729020553634e-02,
          -1.7513791627953124e-02, 6.6581778037877903e-02,
          2.9358751485434764e-01, -1.4028831461669332e-02,
          -5.7644118663031196e-01, 1.5415251039084064e-02,
          3.2356442876345384e-02, -8.2642427288549214e-01,
          -2.4944144591701087e-01, -4.3971123716184651e-01,
          3.2946819091902890e-01, -4.3380266976342385e-01,
          3.9710048329609421e-02, 5.9079110310070759e-01,
          -4.9207556343314376e-02, 5.4029594162420425e-02,
          -4.3793383340358441e-02, 1.2819464801315619e-01,
          -1.8985053628944124e-02, 1.8515249178506915e-01,
          4.2986549001180110e-02, 1.3359747163247684e-02,
          3.5614764820719630e-01, 8.7246167766528909e-02,
          -8.6151239720882067e-02, -4.1267086659212845e-02,
          -3.2657550404792390e-01, 8.0048007304194271e-02,
          3.0267708601997767e-01, 2.9477091883323780e-01,
          2.4359964966035783e-01, 3.2593247553476534e-01,
          -1.5054190130843456e-01, 1.0100720593542215e-01,
          -2.1596078459390153e-01, 1.9156032483253782e-01,
          4.1402737468930369e-02, -8.4932386357865972e-02,
          -1.1526149746248905e-01, -3.7764754396346224e-02,
          -1.0332158222040995e-01, -1.0385798878338487e-01,
          7.3799502543204193e-02, 8.6336768745810935e-02,
          -7.0561197120715347e-02, 2.4332946177356640e-01,
          3.7672618110091233e-02, -4.4029464579037114e-01,
          -1.0000232856836838e-01, 9.8992817404994354e-02,
          -3.9595943233474993e-03, 2.4948758215692987e-01,
          -9.7355267956836161e-02, 8.4902593760672718e-02,
          2.7492460030751857e+00, 2.9224706719272998e-02,
          2.4689362248304822e-01, -3.2250641104584399e-01,
          5.1135410409751336e-02, -3.0250575984404882e-01,
          -2.7614049033084975e-01, 1.3512982339319274e-01,
          -8.3826674139749840e-02, -3.2890998432114893e-01,
          3.8113654235286898e-02, 1.2910486922703079e-02,
          -3.0395001250883950e-02, 1.9358272642915669e-01,
          1.7298370624884069e-02, 5.1576132936131239e-02,
          -1.4243877602807817e-01, 2.5345439337132212e-02,
          6.1128775562787396e-01, -7.4157535453552151e-02,
          -6.2560552154679461e-01, -3.5339825121796048e-01,
          1.7895047190469058e-02, 7.5469887912061398e-03,
          -1.1579313382725920e-01, -4.2539013473619949e-02,
          1.3214175761950908e-01, -7.7306284057961061e-01,
          2.3532144190262630e-01, 2.7176684431594283e-01,
          2.0968417309076726e-02, -1.0865220986739406e+00,
          -1.2310090259987115e-01, -4.0338883852586183e-01,
          -7.9175109501722074e-02, -7.2312090887124669e-01,
          3.8277250255233368e-02, 1.5028452633680568e-02,
          6.9904746817218921e-01, 4.0326005962265260e-01,
          -5.4025345091364682e-02, -7.6010330278485500e-02,
          -1.1392708871429037e-01, -7.2497187445298691e-02,
          -2.0080784529352780e-01, -1.3530529852039551e-02,
          2.2624200711655957e-02, 1.3890498976869281e-01,
          5.7750916395562346e-02, 2.7100048164591051e-02,
          2.6826394226978167e-01, -2.9278506007219851e-01,
          -4.4061152564025589e-02, -3.3600603763884671e-02,
          1.4678968911373655e-01, 2.4735795746657713e-01,
          1.2658763827948641e-01, 2.4919517923467438e-01,
          -2.0134353939275221e-02, 1.9185757733501887e+00,
          1.0512106185302039e+00, -1.4823892887899912e-02,
          4.0032672866179159e-01, -1.1224699386952738e-02,
          4.2970120305041846e-02, -2.6599575638502293e-01,
          1.1461317286723291e-01, 4.9524442831140623e-02,
          1.3346144385340417e-01, -7.6169737525658809e-02,
          -1.3804541902822259e-01, -7.7844502798057671e-02,
          -8.6389847229395397e-02, -1.2069411393794013e-02,
          6.6831082253171054e-02, 7.2303974673169416e-02,
          3.0057673904669957e-01, 8.0170379573241704e-02,
          2.0662306458382512e-01, -7.1072562975640319e-01,
          -1.4423300254828636e-01, -1.6658183888132400e-01,
          -1.9289119962445384e-02, -6.0093282508280410e-01,
          -4.3310476957150255e-02, -2.5059736745217859e-01,
          -9.1932140221832020e-02, -1.2478632633690653e-01,
          -8.7458995463250644e-01, -1.2606930347916087e-01,
          -1.2043310721232917e-01, -2.5862462556659588e-01,
          6.3122246620873956e-01, 2.7705650725638870e-01,
          7.4068240586240272e-02, 4.5108408762371549e-01,
          2.2858109154531589e-01, -3.6688472360493038e-02,
          1.0443054187640566e+00, -1.8842990848681207e-01,
          2.6720398278254354e-01, -1.7236018435672254e-02,
          1.2723110183019645e-01, -3.0963210994570112e-02,
          1.1336099756608929e-01, -6.2264793675903513e-02,
          1.9971066225167056e-01, 2.8678917625505784e-01,
          3.3144262440632927e-02, -3.0640486883018375e-02,
          1.2743634479186880e-01, 1.2208482106508732e-01,
          4.6037373578445950e-01, 9.1913392579585618e-01,
          2.9927828465226664e-01, -5.4401706643332748e-01,
          -3.6792219200638182e-01, 1.8697929576679723e-02,
          -9.6182869674112312e-02, 3.0856536727442430e-01,
          -1.3832410681122249e-02, 1.1323997641108316e-01,
          -1.2491443863300289e-01, 1.5658125017978403e-01,
          3.4727984280440000e-01, 6.6810649558602747e-02,
          -5.9803268099499929e-01, 2.0247513750155696e-01,
          -8.9816775672453178e-02, 4.0891851605513382e-04,
          -7.7760414842076783e-02, 4.7614153959669586e-02,
          5.7687538630491131e-01, 1.7587379407337195e-02,
          -4.6345128590147097e-02, -1.5856185231414929e-01,
          -1.1699602640525995e-01, -1.2906998568666267e-01,
          9.2937460288711055e-03, -3.0211675161570138e-03,
          -2.8867327904310430e-01, 2.3945922362149072e-01,
          2.3651296218296919e-01, -2.9604090994552068e-01,
          1.0023415867884503e-01, 1.0458727603651062e-01,
          -9.9239296265521429e-02, -5.8145776597629956e-02,
          -2.9399792582860074e-01, 2.9537804829963715e-01,
          -9.4628765365320236e-02, -2.3798780240738046e-01,
          1.0434008191537851e-01, 2.7232768716277728e-01,
          1.4817324152854119e-01, 3.9139569830988858e-03,
          -6.0698008128733250e-01, -1.8767828079911571e-03,
          -1.4356562570559722e-01, -1.5067709316672137e-01,
          2.2002490429097736e-02, -3.0075224032390696e-01,
          -6.4720294847676385e-02, -2.0804052141675269e-01,
          -1.1532292658467440e-01, -5.8531156579634602e-01,
          -3.2297737775771530e-02, -4.3059425104343740e-02,
          -6.3208448721841920e-02, -4.9729013057353416e-02,
          3.6587803757780607e-01, 1.1752342607662492e-02,
          2.0615052667936146e-01, -2.6484150752092556e-01,
          -2.9849473821585093e-01, -5.7934650116973585e-01,
          -3.5622189773013130e-01, -3.2222539507269521e-01,
          -8.5341862107900096e-02, -1.5683021158237301e-01,
          3.7254254384823232e-01, -2.0025787344659912e-01,
          3.7011720718090252e-02, 7.9556198298211298e-02,
          1.4024219533361426e-01, 3.0296414139263237e-02,
          1.5081403775238089e-02, -7.0199333008790166e-02,
          -1.5991025919141524e-01, -1.6411705589254480e-01,
          3.4690393496555366e-01, 8.3104191884913872e-02,
          -8.5056988956140056e-02, -8.1925709257221098e-03,
          7.0675644913423749e-02, -6.7476481640834779e-02,
          -4.6650916144953793e-02, -1.7438380980386595e-01,
          1.7335924633312058e-01, -9.4568000767682320e-03,
          -9.1038877786729852e-02, -1.5771010371304961e-01,
          -3.7866005578534917e-01, 5.9891475126025095e-01,
          2.2615024140100254e-01, 5.8078559185395418e-01,
          5.8958653719206522e-01, -7.6749085906623368e-02,
          7.6373760853185577e-02, 6.0210977202755034e-01,
          2.0303698857270908e-01, 2.3035560859451870e-01,
          3.5332668631117037e-01, 1.3096180692540868e-01,
          -1.1686856038523218e-01, -3.4093580943214546e-03,
          -1.1412779183964862e-02, 8.1450775456569355e-02,
          1.1187160900329150e-01, -2.1374417050056688e-01,
          -9.5899513533243275e-02, 1.1407958930624244e-01,
          7.7790905154728765e-02, -1.5991958291607816e-01,
          -6.3669410880922664e-02, -1.8918667639384462e-01,
          -1.7902509661346211e-01, -2.5137388401280495e-02,
          -1.1248119882099743e-01, 1.2954444563973722e-01,
          1.2513005589493884e-01, 8.8620841229816949e-02,
          -6.3588355516478123e-02, -9.7291220501450462e-02,
          2.7619946648870297e-01, 2.6251961257434858e-01,
          8.9932043144451621e-02, 7.4687224972563082e-01,
          -2.0240200191762359e-01, 9.1285670205973654e-02,
          2.7371173030344026e-01, 1.0237738109958981e-01,
          -1.9580216974137657e-02, 2.8337886945891905e-01,
          -7.7074094155740680e-02, -4.7059726026193051e-02,
          9.3930671105886446e-02, 1.3905685667068024e-01,
          2.0089388527820140e-01, -2.7215585824447497e-01,
          8.9121905482498501e-02, -1.3708373084929301e-01,
          -1.1486600947610125e-01, 7.3513406315832613e-02,
          -5.0502966285101064e-02, 1.0197853095124017e-01,
          6.0653615055786494e-02, 8.8899439717538983e-02,
          1.7498426402857933e-01, 5.3725791525610078e-02,
          -2.1150463147496695e-01, 2.8108395830808458e-01,
          -3.4349662744670512e-01, -1.0942412797330818e-01,
          1.0053675097566929e-01, 3.7128986331569691e-01,
          1.4684758853773261e-01, 1.2142649772427754e-01,
          3.7306411053787536e-01, 2.7797927253958860e-01,
          -3.2496791744689266e-02, -1.1139346306338455e-01,
          2.0223976951445310e-01, 2.7213189181873221e-01,
          2.1912571675937098e-01, 1.9042132490437219e-01,
          -2.3430952190874738e-02, 2.2274194604308328e-01,
          7.4154081181391732e-02, 2.6872297314903898e-01,
          -5.9228944851231605e-02, 2.0216775820767074e-01,
          -1.0455234916265831e-01, -1.0837818956596476e-01,
          5.9455533502213595e-02, -9.1620496525619988e-02,
          -1.3710222418441045e-01, -3.0073089016883672e-02,
          2.4216230218432921e-01, 6.4352788585610207e-02,
          -3.7151324577256048e-02, -9.2643327298075909e-02,
          1.2122902227540246e-01, 1.0438732493831719e-01,
          -8.9702966183222724e-02, 1.2727585974189176e-01,
          4.2382404879856278e-01, 2.5581397203890949e-01,
          -2.3406291623277503e-01, 2.8844984857888362e-01,
          -4.6641331884782887e-02, 1.5162327692306310e-01,
          -3.6782182340119790e-02, -2.2073228513496737e-01,
          1.9721172961707847e-02, -2.1733273229236244e-01,
          -2.1603714337000107e-01, 1.0180397893367987e-01,
          -2.8784754546058405e-01, -2.0023734050501474e-01,
          6.7258109603105631e-02, 4.8349889555822437e-02,
          1.4128889296921004e-01, -1.2852084574515790e-01,
          1.0639676147131806e-01, 2.0490235661089690e-01,
          2.4768410342090846e-01, 7.6995560659133225e-02,
          1.0429787439369083e-01, -1.6427805930325451e-01,
          -1.0961640899685322e-01, 2.2898415803783201e-01,
          1.1053084875073620e-01, -1.7630132954058472e-01,
          -3.2002901080700974e-01, -1.4642169944497027e-01,
          2.1604344604292397e-01, 2.9696120855890995e-01,
          1.0840061806265514e-01, 9.4394851259628529e-02,
          1.0728497201068256e-01, 8.7760896879956307e-02,
          -2.3439978828487512e-01, -1.0487539635220276e-01,
          2.7757038138293516e-01, 2.4326717849886009e-01,
          1.1675956232023117e-01, 8.6883032137556430e-04,
          -2.6187641405220580e-01, 1.0668559430429848e-01,
          2.8265724118190305e-01, 7.9962354837324487e-02,
          -3.1184669169900320e-01, 2.7072958032566724e-01,
          -8.6803497411526973e-02, 7.6047708423612151e-02,
          1.0357087186704929e-01, 5.6873983244111553e-02,
          1.7751014906650153e-01, -2.6987269257766394e-01,
          1.1086037544539372e-01, -1.0645390922421551e-01,
          -9.2952796653661476e-02, 6.2769592899058285e-02,
          -3.0028667215761284e-01, 1.0522881700482865e-01,
          2.2558742322155853e-01, 9.8410834024363195e-02,
          1.5659404798374865e-01, -1.2157475301570048e-02,
          -2.0128405944640554e-01, 2.7359152173481194e-01,
          -1.8070659058077976e-01, -9.1466204757208278e-02,
          1.1427746734617027e-01, 2.8739346171471630e-01,
          1.5980661979968852e-01, 6.0468304322131419e-02,
          1.4515270560881105e-01, 2.7766093066597675e-01,
          -3.0355073915281794e-01, -8.0925664170484232e-02,
          -2.6949569626570269e-01, 2.9243848101263054e-01,
          1.8289312075817982e-01, 1.5878263183198721e-01,
          2.5031788975850516e-01, 1.7801880849597818e-01,
          1.0403209309543636e-01, 2.3855842964685997e-01,
          -2.9338353135996464e-01, 2.2346895964102514e-01,
          -8.3098793248482503e-02, -4.9231559911862614e-02,
          6.8992265349480955e-02, -9.6528708659052595e-02,
          -6.2647874828661229e-02, -4.1736998213185683e-01,
          2.6523549401812574e-01, 2.2055649756918064e-01,
          -3.1782829254946166e-01, -1.0906919712937381e-01,
          5.4547590941780875e-02, 1.0404780342974394e-01,
          -3.1874446545636015e-01, 6.7119719636341169e-02,
          2.5069836116655159e-01, 3.1514180298537642e-01,
          -2.5552120653184152e-01, 2.7609964606749310e-01,
          8.7112414581308265e-02, 1.6887831976286469e-01,
          2.6478494102630762e-01, -2.8076500232799451e-01,
          2.8869329094797369e-01, -2.2383192443143463e-01,
          -3.0180967192944180e-01, 8.9865223150153481e-02,
          -3.0131357641125295e-01, -1.9701841432201178e-01,
          2.5746923138765954e-01, 2.4138676484494759e-01,
          4.0103205376367572e-02, 4.9276009616125230e-03,
          9.6899112428479137e-02, 1.9336863106129387e-01,
          5.3718990201096023e-02, -1.5108430095646510e+00,
          -1.0791969990117818e+00, 9.7176297197454048e-02,
          1.0886697501768903e+00, -4.3827380396604304e-02,
          -1.7083480044679671e+00, 6.0449063199864250e-01,
          -4.7701365274027643e-02, -1.4990266979910097e-01,
          -1.6810876447444539e-01, 4.1464558171460292e-01,
          -9.6948821896536738e-02, -1.0835958581250926e+00,
          -1.1113280918907522e+00, 5.3765282464210429e-01,
          -3.3072301513043106e-02, 1.1160693876534458e+00,
          -1.8859576823802421e-01, 4.1576977395793607e-02,
          -1.7070102887613889e+00, 5.2844160575268295e-01,
          -1.0732773739293351e-01, -1.0845696232927189e+00,
          -4.9544035901500200e-01, -7.6836078314725734e-02,
          1.9073695023957382e-01, -4.8323083175426679e-01,
          1.3815987445455624e+00, 1.7086661888994454e+00,
          -1.5131398273413006e+00, -3.7326317140506499e-01,
          -1.2260684539492540e-01, 1.3197500256899830e-01,
          -1.1108141245021765e+00, 6.2983834086679000e-02,
          1.7043609313881600e+00, -7.2231723273067538e-02,
          -7.9189449896067743e-02, -1.0870382128151230e+00,
          2.6467265329668841e-02, -1.1069065178976465e+00,
          -6.0485562427823703e-01, 1.0005769486180420e-01,
          -1.1445439720935351e-01, -1.2970730326933522e-01,
          -2.0312301234063990e-01, 1.0966273726619867e-01,
          -1.7238379498695311e+00, 4.6127584627268299e-02,
          -1.7467970133166905e-01, 3.5075213739680045e-01,
          -1.4448504533579160e-01, -5.1053416256776152e-01,
          -5.4740246443627988e-02, 1.0801571639360437e+00,
          1.3629021105026792e-01, -1.4586650575186719e-01,
          -3.7976735532507544e-01, 3.5209251172850238e-02,
          4.3394736759449298e-02, -3.9832277672300831e-01,
          -1.1145427491553344e+00, 6.0822086431290445e-02,
          -7.0755108437571337e-02, -2.0200474284549258e-01,
          6.6910800771580003e-01, 1.1061388248877111e+00,
          1.9361228912491186e+00, 1.3632551830636084e+00,
          8.2773403673377610e-01, 2.1963783999704614e-01,
          6.7512297282457362e-02, 7.5109458254862954e-02,
          -7.1581703359656287e-02, 1.1012247471131924e+00,
          -1.0798227910143190e+00, -1.0851737073872001e+00,
          4.2574663241414318e-01, -4.7742146526399476e-01,
          -5.6035487754992663e-01, 4.6714342403992887e-02,
          -5.8302151448205400e-02, 8.4274478192579161e-03,
          -1.1090679851764911e-01, -6.2971046812587761e-01,
          -1.5249490647181499e-01, 1.0795555693391207e-01,
          -1.8201684333380153e-01, -3.6731579176309002e-02,
          -1.5293051789536657e-02, -1.1638412199083421e+00,
          1.5060640547558224e-01, 1.4506843720834123e-01,
          -1.9046608100973828e-01, -2.4297996969928676e-01,
          -6.3130034209784122e-02, -6.4135418055888474e-02,
          -1.5387169378981813e+00, 7.6168392273261609e-02,
          -1.9086391074451477e-02, -1.1899986104873130e+00,
          -1.1047309417705251e+00, -3.3928317133193463e-02,
          1.0993158534704532e+00, 3.6271990668154175e-02,
          -1.2156415176485693e+00, 6.0327497144151732e-01,
          3.3556810665741510e-02, -1.6831238371546667e-01,
          -2.5013032840800814e-01, 1.9580452090912964e-01,
          -7.1149931364892935e-02, -1.0896419756286524e+00,
          -1.1999450380232946e+00, 5.4862144493529263e-01,
          1.5116233538849189e-02, 1.3710721905716818e+00,
          -2.1300452053136065e-01, -1.8597222042997307e-02,
          -1.2052398209119828e+00, 1.4946195984798666e-01,
          2.1564457844460684e-02, -1.1033528104919124e+00,
          -5.0619463145290078e-01, -5.7665386494636421e-02,
          6.4166311217859684e-01, -5.0882139389260728e-01,
          1.5218789139905260e+00, 7.4442078753854668e-01,
          -1.2150339556259426e+00, -2.0034339678636548e-01,
          4.6389860471095633e-02, 5.0911527521559097e-01,
          -1.0922760387257524e+00, 8.8065356988194704e-02,
          1.2027034709294575e+00, -7.1463405216331571e-02,
          4.2783535075777264e-02, -1.1014118447166124e+00,
          -6.4118818814910883e-02, -1.0974001012813872e+00,
          -5.9906515428521701e-01, 8.3264424535149192e-02,
          -1.0261588076228005e-02, -4.7631319421099866e-01,
          -2.0749251918553799e-01, 6.6381134428397792e-01,
          -1.1891491845654352e+00, -3.0386711583810552e-02,
          -1.7716472212493606e-01, -8.1559490560787007e-01,
          -1.6168012932949205e-01, -4.9208332054286602e-01,
          4.8304044973271152e-03, 1.1085662971589749e+00,
          2.9665415464470662e-01, -4.9141846621549962e-01,
          -1.5440479527303252e-01, -1.4237562587053471e-02,
          -1.6986107488335744e-02, -1.7195813619612463e-02,
          -1.0995589118265010e+00, -8.7104798731954067e-03,
          1.2789082346834577e-02, -5.8484790350869349e-02,
          1.2165542990991225e+00, 1.3789113127233041e+00,
          4.2827695207842209e-01, 2.3184581031081684e+00,
          8.2010403926129183e-01, 9.5762430339887517e-02,
          -2.5514867762127896e-02, 3.1892916222650189e-03,
          1.5367720240957805e-02, 1.1077467927313243e+00,
          -1.0860096422261329e+00, -1.1164332260386054e+00,
          7.1392412658537907e-01, -4.6294154154504064e-01,
          -4.4753721712291444e-01, -9.1027720524137021e-03,
          7.6412558593616179e-03, -6.0074553980344093e-02,
          -1.6535181101795451e-01, -6.0036270154416838e-01,
          -2.6034851289108629e-01, 3.1228369203847813e-02,
          -4.2336535130494091e-01, 2.3764673086151100e-02,
          2.1947761067728853e-02, -1.1977904443778848e+00,
          1.3080565360016991e-01, 5.3110498542350025e-02,
          -3.3645405606874013e-01, -6.1478816082736487e-01,
          -2.8226827897273332e-01, -1.2917031622553421e-01,
          -1.1839280652603212e+00, -2.3934718801394556e-04,
          -2.6796221222479294e-01, -1.0260791536245488e-01,
          -6.7059928342814462e-02, 1.5890211244860702e-01,
          8.8022932501054765e-02, -7.6880088491547233e-02,
          -1.0159051255321734e-01, 1.5665717091638875e-01,
          2.2480179363547817e-01, 1.8580116840264621e-01,
          9.6393817096049550e-02, 3.5343656859820841e-02,
          2.2384709030251321e-01, -1.0237292032599245e-01,
          -8.2953263470378027e-02, 4.1676574941585776e-02,
          1.9296960875330449e-01, 8.7714830044480899e-02,
          -2.6373636586956239e-01, -2.0623989560080838e-01,
          -9.4944401568570855e-02, -2.0565296946938066e-01,
          2.5416757068278317e-01, -1.0374697039727841e-01,
          -1.3396586279924444e-01, -3.5122475082196687e-02,
          2.4310527627646245e-01, -1.3018433940970053e-01,
          7.9632262160007988e-02, 7.6750099531309415e-02,
          -9.2459680435388478e-02, 5.2467962486057687e-02,
          -1.7568226611115789e-01, 2.8375289309849050e-01,
          -8.3807360890606974e-02, -3.0635082103829847e-01,
          9.4723017555418995e-02, -5.3064683313677467e-02,
          2.9759244651286032e-01, -1.0915719629871483e-01,
          -1.7611662075757156e-01, -1.0740442004045188e-01,
          -1.7654612155105884e-01, 2.8121529091547681e-01,
          2.7963910599412051e-01, -2.9786162986819859e-01,
          1.2703295928757005e-01, 6.7842989107577717e-02,
          -1.1677313589975492e-01, -2.9362492205352514e-01,
          -1.4332870765156008e-01, -9.9067617135305944e-02,
          -6.7267567828391689e-02, -2.8347352830480255e-01,
          2.3256336791112406e-01, 6.2450037198866798e-02,
          -5.9997442296189953e-02, -2.9457455471760535e-01,
          -1.8347435599345274e-01, -1.7530460146174642e-01,
          4.4839073013032485e-03, -1.6637314595512598e-01,
          -1.0563699060135857e-01, -1.9691934570528385e-01,
          2.1297834637594523e-01, -2.7630461547992147e-01,
          1.0808367829253464e-01, 7.2311818372148812e-02,
          -7.3632572894142920e-02, 7.4195590998385449e-02,
          4.7187629008434789e-02, 3.1237499275188885e-01,
          -1.2995231456641554e-01, -2.0053316941397772e-01,
          2.3492613369072571e-01, 1.0864640879215852e-01,
          -7.1830997938229418e-02, -8.5113009024837386e-02,
          3.2481035629015753e-01, -6.9845760001664370e-02,
          1.5099380969031118e-01, -2.9631911736321337e-01,
          1.8408978535412462e-01, -2.8210722562030899e-01,
          2.3055204833225809e-01, -1.5729327502251128e-01,
          -2.4488998049448213e-01, 2.9573002711533874e-01,
          -3.0332738892808847e-01, 1.7424119297469876e-01,
          3.1476335457037324e-01, -1.0018164901099956e-01,
          2.7129522160979325e-01, 2.1404889552296047e-01,
          -2.9790161283616712e-01, -3.2382749730984711e-01,
          9.6087874377324828e-02, 5.8662960802388509e-01,
          -8.2710565296798294e-02, -2.3439374406211150e-01,
          -6.0917863759845270e-01, -8.1258778687847949e-02,
          -1.0975824040649500e-01, 2.3514177718845475e-01,
          7.2647537388894290e-02, 1.6755837593120745e-01,
          -1.0250843500981184e-01, 6.4035855022057789e-02,
          6.2360141430507232e-01, -2.7964632865253053e-01,
          -9.6156432100678946e-01, 2.8307783354986737e-01,
          -1.1657908838840501e-01, -1.1602839448163332e-01,
          -9.5186070823859562e-02, 5.8796668016997886e-02,
          9.4928259434034046e-01, 9.2528773790415395e-02,
          -1.1135542319107182e-01, -2.4509832721209565e-01,
          -1.0180023922817931e-01, -1.2413117411167235e-01,
          1.9707945622558928e-01, -9.8196460314655995e-02,
          -1.3509468746223763e-01, 4.1094893324049508e-01,
          1.8776500134174179e+00, -1.3284312987834740e-01,
          1.1482390224866458e-01, 4.0178285594444828e-02,
          -1.0147270110815280e-01, -6.0228825560299473e-02,
          -2.5031398694512685e-01, 1.1961954917009603e-01,
          -1.0354624753340647e-01, -2.7967713254401305e-01,
          8.8506550574978041e-02, -1.2847338541124217e-01,
          2.9589219972531061e-01, -1.0132999087545665e-01,
          -5.8803661202491120e-01, -9.3823938868057358e-02,
          -6.0332075645816829e-02, 1.6811582189546684e-01,
          2.8104477583688298e-01, -2.8926821652242729e-01,
          -1.7495006083179646e-01, -2.1482744984157573e-01,
          -8.6612292024700901e-02, -2.9994389497961171e-01,
          -7.4535862530649602e-02, -6.6282995937556335e-02,
          8.8649603493486800e-02, -1.1962796189487281e-01,
          1.7080529376704974e+00, 9.6884145562684945e-02,
          7.0007192945342833e-01, -1.1060998493570584e-01,
          -2.2235576079867742e-01, -2.4447014604113576e-01,
          -2.7556435746438663e+00, -5.9913160313174718e-01,
          -8.1763049860936118e-02, -2.5190730058314204e-01,
          6.4123820736637049e-01, -5.6025239834737173e-01,
          1.0528059069205233e-01, 7.4705524572794751e-02,
          -5.0255842289115768e-02, 8.6393940432361649e-02,
          6.0361788759116852e-02, 1.4011660951233547e+00,
          -2.0041956777005851e-01, -4.3979040793124413e-01,
          1.7079659528951001e+00, 8.3710109752761150e-02,
          -9.8005243654921873e-02, -9.4641964901036116e-02,
          2.5119034446063887e-01, -6.2101298449046938e-02,
          1.0783304333944252e-01, -2.0330622492782366e-01,
          3.2215291688867753e-01, -4.4437348655067599e-02,
          -9.6101392355905771e-02, -5.9749873567828751e-02,
          -2.7361990880559000e+00, 2.6189010174225374e-01,
          -1.4225357553959119e+00, 3.8336126317534119e-01,
          5.2717418392012938e-01, -8.2012657529458050e-02,
          1.3662551827135677e-01, 2.2839460974650194e-01,
          -1.5465845951460346e+00, -6.6599951503244537e-01,
          5.0640210790778484e-01, 2.2465089478517494e-01,
          -8.3187041990887098e-02, -2.0099731976849003e-01,
          -1.1887285409315987e-02, 7.2436689309446689e-01,
          5.4926281863811349e-02, -1.3540758172781295e-01,
          -6.6877533161442654e-02, 3.1763409012896267e-02,
          4.4102846623055680e-01, -6.0988094100344781e-01,
          5.2937368804725604e-02, 3.7176640528625948e-01,
          1.3842697445483018e-01, -4.1864572715112935e-01,
          -2.2983276933966379e-01, 6.9577141492595446e-02,
          4.3553984911983201e-01, -1.4328831823368058e+00,
          2.5486956809087002e-01, -6.2132990432928792e-01,
          4.7685209038214565e-01, -7.2253746551379117e-02,
          5.9996044396719672e-01, -1.1342850619301824e-01,
          1.5126915080649414e-02, 6.6552646077839756e-02,
          5.1202293555435419e-01, 5.9918164389488431e-02,
          -1.1239907022340020e-01, 4.8283107361628957e-01,
          -8.7023937750691593e-01, -4.5725760567226126e-01,
          7.1785029275695678e-01, 2.5130672074141264e-01,
          1.5052993304277471e-01, -5.1341151757516179e-01,
          6.0849853736057780e-01, -9.9326411322126051e-02,
          -7.3836947170523359e-01, 8.5058995088958964e-02,
          -1.4087340835419746e-02, 6.3721987093068400e-01,
          2.7263533628844932e-03, 6.2573980729140954e-01,
          6.2137945460816169e-01, -9.3435476946026372e-02,
          4.5858334873202462e-02, 4.7934761865928693e-01,
          2.8964240538918729e-01, -2.1988772063533155e-02,
          7.3065163990050008e-01, 4.9837686397031122e-02,
          6.2735841560294303e-01, 3.2665618598357837e-01,
          -6.3117379192437484e-02, 4.9755926562135960e-01,
          2.5796229902988332e-01, -5.8976218502423322e-02,
          6.8635660832618475e-02, 4.9893987838475834e-01,
          3.1482426742686649e-02, -3.5722373481174852e-02,
          -7.1218907170395113e-02, 2.7341502988603417e-01,
          6.4058266278910048e-01, -7.0128244712534538e-02,
          4.8098998104059584e-02, 1.4805691040492555e-01,
          -4.2829491914666473e-01, -5.6815526586182807e-01,
          -3.7550622670385736e-01, -9.6490293698236718e-01,
          -5.4072307126893510e-02, -3.6814755947574149e-02,
          -5.0379870817747942e-03, -5.0413542323062388e-02,
          2.5106932832694284e-01, -6.3035635969848958e-01,
          8.6289423337702204e-02, 6.3409085546531774e-01,
          -2.4444589310221074e-01, 5.4835861026090199e-02,
          1.2708362283139791e+00, 2.5230141706412034e-02,
          1.8744243348508233e-02, 5.8758079456797264e-02,
          1.2659109025202722e-01, 6.3236292765450308e-01,
          -2.0659150824919165e-02, -1.8246591561739220e-01,
          5.0691752306473201e-02, -7.1574718795472947e-02,
          -7.9861179085963935e-03, 7.4269812380626643e-01,
          -4.9467642813975515e-01, -1.9054448134889235e-01,
          6.3669624569079908e-01, 1.3608909455411453e-01,
          1.1363214090272440e-01, 6.3271619897206560e-02,
          7.1945232128277703e-01, -1.6460341793637052e-02,
          -2.3176006923939180e-01, -1.0661261295127365e-01,
          -1.0909334627091792e-01, 1.8786597666922639e-01,
          1.0038104274010214e-01, 1.1873139376531575e-01,
          -9.8929374716303739e-02, 1.6692525138952874e-01,
          3.1112358087099728e-01, 4.3587298185895407e-01,
          -2.2725945993546304e-01, -1.1818327076140414e-01,
          -1.0829654602449279e-01, -8.4197115805237768e-02,
          -9.5127316233020495e-02, -8.7106629084236942e-02,
          2.0209136584141141e-01, 7.7511783006328022e-02,
          -2.8444950552937431e-01, -2.1385915188285221e-01,
          -8.2684117660624640e-02, 2.2341482646318217e-03,
          1.8112107731556315e-01, -1.0865900275411051e-01,
          -2.8089620800038284e-01, -6.6373826257095300e-02,
          2.9232884213891625e-01, -3.0148247848758303e-01,
          9.1444663404805601e-02, -5.2068291387667734e-02,
          -1.0967147782618598e-01, -6.6605627480157803e-02,
          -1.5590815355657134e-01, 2.9385926998803846e-01,
          -7.8715721878401521e-02, 1.0404433824824684e-01,
          1.0812834718409174e-01, -6.7703161101802994e-02,
          2.9573489022243549e-01, -1.0801238755085167e-01,
          -3.2265805296570343e-01, -9.7408888792284945e-02,
          -1.6955425938842225e-01, 7.8946933449103585e-03,
          1.8666850341540175e-01, -2.9532358965527250e-01,
          1.7502787803684611e-01, 8.3555721865382973e-02,
          -1.0069197272138068e-01, -2.6715948504321452e-01,
          -1.5912779618071066e-01, -1.0071824021951491e-01,
          -1.3293189689534268e-01, -2.7275162648051465e-01,
          2.8984814938911901e-01, 8.3196409362394239e-02,
          2.6712715610589166e-01, -3.0186733116278913e-01,
          -1.6478289328290308e-01, -1.5897195388845359e-01,
          -1.2445006253724800e-01, -1.6480872565855498e-01,
          -8.4534094111728200e-02, -2.1667531868298950e-01,
          2.5374440721933988e-01, -2.4337844253549501e-01,
          1.0025418022354800e-01, 8.1320163253070635e-02,
          -7.7121492664905381e-02, 1.0050666325634709e-01,
          7.6854506497671907e-02, 2.4567657624798458e-01,
          -2.1709125915481331e-01, -2.3395372982840829e-01,
          3.0465842317082026e-01, 1.0862106397288175e-01,
          -8.4894261133929741e-02, -1.0468618931851688e-01,
          2.9831503927774550e-01, -7.4677398415748664e-02,
          -2.4952385775471556e-01, -3.0437065598991836e-01,
          1.8263722840570884e-01, -2.7328652042816104e-01,
          -9.1141111271477310e-02, -1.5839589549343619e-01,
          -2.3609089312294651e-01, 2.8561343314580934e-01,
          -2.1679994767511618e-01, 1.9966590738649143e-01,
          3.0006748820185875e-01, -1.0553283596204617e-01,
          2.9274757491943254e-01, 2.2027763448566384e-01,
          -2.5065830271110473e-01, -2.4611423254209494e-01,
          2.2863763722112546e-01, -9.4259727474924754e-04,
          -9.1298948757100026e-02, -2.1743315060539309e-01,
          4.7428941170864403e-01, 7.9353916306467084e-02,
          1.0649699211261336e-01, -2.2382871818260353e-01,
          -1.1393499415021041e-01, -1.4869360515987551e-01,
          1.1275276842033231e-01, -1.5267593364718013e-01,
          -4.6335162896998483e-01, -1.6287395837129312e-01,
          1.0563513888211551e+00, 3.9265704294306911e-02,
          1.3028649495265371e-01, 9.7731082458999544e-02,
          1.1163110305163187e-01, 1.0862747337883105e-01,
          -3.5222596068142553e-01, -1.0636506405055325e-01,
          2.8503877194390548e-01, 2.5307608683867622e-01,
          1.1033814862195150e-01, 1.3233161539971081e-01,
          -2.3079906142432127e-01, 9.1956675502902749e-02,
          2.8404118901868392e-01, -1.2320565112498183e-01,
          -1.1400113745059699e+00, 2.9394821891327771e-01,
          -1.0637461406885461e-01, 6.5511519234505086e-02,
          9.3055756487179467e-02, 7.1028347749297976e-02,
          2.3244038985000509e-01, -1.4592976971511068e-01,
          1.0459324327691714e-01, -1.4948153018070520e-01,
          -1.0399894891894616e-01, -2.7680199821684898e-01,
          -3.2040750679964181e-01, 8.7784276576071588e-02,
          5.6355615053907115e-01, 8.1921320764707109e-02,
          1.5810162643726883e-01, 2.5171220406865397e-01,
          -1.8412846882386846e-01, 1.4788605918342151e-01,
          -2.7376847743556545e-02, 1.8399760080995095e-01,
          9.2914191584651570e-02, 2.9445819353970631e-01,
          9.9677486342757401e-02, 1.1315905353099930e-01,
          1.6119806071554871e-01, 3.0060454692781541e-01,
          -1.2184040313473516e+00, -1.1262825092171219e-01,
          -6.6925378389968126e-01, 1.2961003377485245e-01,
          2.2502002821651673e-01, 3.7616181977998187e-01,
          1.2433481539753644e+00, 2.4981121380286841e-01,
          9.3808555532463214e-02, 2.4560006824035513e-01,
          -4.5340656021011361e-01, 2.0722884441847378e-01,
          -9.9277562484792456e-02, -1.2016042812548208e-01,
          8.5913520088855694e-02, -1.0935887127722525e-01,
          -9.4767021680939256e-02, -1.2874425855086480e-01,
          2.3945557456763905e-01, 2.3997135573107770e-01,
          -1.2448425553858060e+00, -8.1914212593965377e-02,
          1.1819255401213051e-01, 9.3184365769566194e-02,
          -1.1267468817449686e-01, 1.0007202322381052e-01,
          6.0979926636429545e-02, 2.4789207744052166e-01,
          -2.6904094081465024e-01, 3.0539505621325180e-01,
          2.6263050630516660e-01, 1.4544793284975932e-01,
          4.5480244637542322e-01, -2.7706961602429603e-01,
          6.6994928089832628e-01, -5.7136827460426520e-01,
          -5.4215386040175018e-01, 1.1047586283482171e-01,
          -1.1681489871437234e-01, -2.8741988729410389e-01,
          2.4450908013106859e-01, 4.9925549969098704e-01,
          4.3460144861243305e-03, -1.3999215870499696e-01,
          9.7540278976346692e-02, 2.4274035060580035e-01,
          -1.2639240336695387e-01, -1.1128108771235816e-01,
          -7.4617711173697865e-02, 1.3090460341851606e-01,
          1.0027120404678132e-01, -1.6784421097037336e-01,
          -1.2766120899708303e-01, 1.4890068983878685e-01,
          1.7204108231514148e-01, 6.6678454613769006e-02,
          -1.6187845535122719e-01, -1.9268611061878080e-01,
          -7.5402359283523804e-02, -2.5502452851138606e-02,
          -9.7203573780831859e-02, -6.4787708729913729e-01,
          1.8236357957864807e-01, -8.0525885612404459e-03,
          -2.9040171355326672e-01, -1.5320317160377780e-01,
          -1.0205393748988044e-01, 4.5922894873422979e-02,
          -4.3763274591188811e-03, -1.0324756097823380e-01,
          -2.7256118912434735e-01, -6.1115549120728453e-02,
          1.7247215132107616e-01, -2.9635032296001484e-01,
          8.7746219649722096e-02, 1.2184371094111493e-01,
          -1.3544070094477587e-01, -5.0158424252850838e-02,
          -1.3393779396878813e-01, 2.9458559975488058e-01,
          -8.2323291626171566e-02, 8.2351281213165109e-02,
          1.1614432892966094e-01, 1.0936745713367370e-01,
          1.2886209208323371e-01, 5.3752774663884213e-03,
          -1.7527220658774889e-01, -7.6826606418678195e-02,
          -1.6099997842000063e-01, -7.0570060302440896e-03,
          3.2870444715286877e-02, -2.8418071191060101e-01,
          1.8607765094970335e-01, 9.0335959000633001e-02,
          -1.1648980971752516e-01, -1.0566375401139330e-01,
          -1.7646443141736709e-01, -8.4762800052180939e-02,
          -1.2979744015996428e-01, -2.8521750482116481e-01,
          1.6486165030296956e-01, 9.9240829366627162e-02,
          2.8176711727111015e-01, -2.6447794070248581e-01,
          -1.3267426133261429e-01, 4.8714037740057559e-02,
          -1.2553762843247071e-01, -1.1685371418557614e-01,
          -7.9476394549139073e-02, -1.6951007210607896e-01,
          1.3120516652516903e-01, -1.6778328343327709e-01,
          1.2875828095536754e-01, 1.0734005603574463e-01,
          1.2917867305317357e-01, 3.7133071598033363e-02,
          6.1329169837939318e-02, 1.8534865331064726e-01,
          -1.4405536588672538e-01, -1.4474331866803222e-01,
          1.4720436595760197e-01, 1.0045462571899481e-01,
          -8.8161124359022194e-02, -8.6003680770655414e-02,
          8.5826479465280589e-02, -8.4951155618197327e-02,
          -2.6502485103198464e-01, -1.5110877922308083e-01,
          1.7673255637142812e-01, -2.6989783696796936e-02,
          -9.4951026816528575e-02, -1.6918145077360844e-01,
          -1.5435234275469153e-01, 1.7676949464524477e-01,
          -1.9744631360022694e-01, -7.3156407043377794e-02,
          1.8362255212190914e-01, -1.1929717195352063e-01,
          2.8628833748193649e-01, 1.4634304471914938e-01,
          -1.1782861313436886e-01, -1.8029134466507060e-01,
          -8.1624623526071360e-02, 1.0246715869253847e-01,
          -1.7040248245153794e-01, -1.9566964819317016e-02,
          -3.5577092357252543e-01, -1.7828185410233308e-01,
          -9.5955643571397090e-02, 5.9470133042627615e-01,
          9.8662455127930940e-02, 8.2475601931372405e-02,
          -1.1937979933505607e-01, 1.6346422096338020e-01,
          3.5245712189870443e-01, 6.8995624369318415e-02,
          -6.1408207009185856e-01, 2.2676302360412243e-01,
          -9.2948657902032480e-02, -7.5814393688930462e-02,
          -9.4608226185892999e-02, 2.4207082154871751e-01,
          5.8360466345231443e-01, 8.5820115945550376e-02,
          -8.5302542523671879e-02, -1.4569160389144023e-01,
          -1.2588498403625265e-01, -1.1202490423242015e-01,
          3.2791102929254350e-02, -7.8974304358680594e-02,
          -2.8698664841441285e-01, 3.0458778305577461e-01,
          2.6705754221552397e-01, -2.9617479930869295e-01,
          7.4333656134275103e-02, 1.3609776681432748e-01,
          -1.2453149541934505e-01, -4.6447970117332545e-02,
          -5.7405993540629430e-01, 2.6531012621044087e-01,
          -9.3349315702774868e-02, -2.2141708605994256e-01,
          1.3059611083062925e-01, 2.9261987536986833e-01,
          1.4463637378418129e-01, -8.8269567431956450e-02,
          -6.0368217710258643e-01, -7.6457920299493415e-02,
          -1.4763612463798204e-01, -1.7607182418020287e-01,
          7.0514711481492881e-03, -2.9261426761034559e-01,
          -6.8502625447441207e-02, -2.0182473817996563e-01,
          -1.1791535656311063e-01, -5.7287288779648204e-01,
          -3.3408523661561169e-02, -4.5967028077353228e-02,
          -2.5631085868777248e-01, -2.8036855780178827e-01,
          -5.3201374495084941e-02, 1.0643220235129226e-01,
          2.1054823933221195e-01, -2.9825039495846567e-01,
          -5.8195130652765292e-01, -6.0845361950568333e-01,
          -3.7344735991205774e-01, -5.9572959990359853e-01,
          -9.9567290062150135e-02, -1.7622638088356166e-01,
          3.4435708741978682e-01, -1.9585393158907077e-01,
          3.9351901560801122e-02, 8.4718984433600250e-02,
          1.2747879626968814e-01, 1.0828555087322116e-01,
          2.9646031314690353e-02, -7.1921458127143700e-01,
          -1.5480046224569569e-01, -1.7317739330712675e-01,
          3.4905894559902012e-01, 8.3642088455465488e-02,
          -7.1828287362516105e-02, -8.6566992225490844e-02,
          6.6597405440363702e-02, -6.8456939399190037e-02,
          -6.8620831389491391e-02, -1.5398050065405786e-01,
          1.7161436421501899e-01, -3.0640133658173911e-02,
          -9.2711846758796942e-02, -1.6125580812744034e-01,
          -3.6201317063918020e-01, 5.9502046182227808e-01,
          2.2165985190979237e-01, 5.7871749357733415e-01,
          5.8409311725233692e-01, -9.2925155691142777e-02,
          2.9028034416320231e-01, 6.0736398497762734e-01,
          2.2499258363236369e-01, 2.1639037718157200e-01,
          1.9595968917244763e-01, 7.5627246333781983e-02,
          -1.0560041415738640e-01, -3.1735046382451552e-02,
          2.6602190914439688e-01, 9.8688071255483081e-02,
          7.6168936622379987e-02, -1.6103927505201326e-01,
          -1.0404353322288089e-01, 1.4154433703780359e-01,
          9.6707417122599185e-02, -1.6238101652761361e-01,
          -2.1453881022441754e-01, -6.6239383514473810e-02,
          1.9883284252219069e-01, 1.0820385997487041e+00,
          8.8566322727938948e-02, 1.0583314943778895e-01,
          1.1116996501387917e-01, 9.1445361119880608e-02,
          -1.9874102549349121e-01, -7.3639268014963413e-02,
          2.6574444073435377e-01, 1.9148183887230671e-01,
          7.6042499026633723e-02, 1.3917624085425070e-01,
          -1.9689098976359845e-01, 7.7742263742252946e-02,
          2.9932356567205964e-01, 4.9646220964838908e-02,
          -3.2110742340506987e-01, 2.8764687307193637e-01,
          -1.0603118595852158e-01, -6.9264337802958417e-02,
          1.0552877273926635e-01, 7.9300777182796378e-02,
          1.8589141540571746e-01, -2.7495484392884273e-01,
          9.0951475817995245e-02, -1.0454419372856047e-01,
          -1.0583120215600429e-01, 5.3044675615880665e-02,
          -2.5655005691865729e-01, 9.2741362361415572e-02,
          2.2541631294510336e-01, 1.0728743269405759e-01,
          1.7157317278760306e-01, 2.6810883586894235e-02,
          -2.0492586393560283e-01, 2.8630946475007901e-01,
          -3.7729689863165089e-01, -8.5926402946710875e-02,
          1.1344389459111799e-01, 2.9514627722768705e-01,
          1.7745937609598614e-01, 9.7380284437891498e-02,
          1.8588412883229724e-01, 2.7204519211092903e-01,
          -2.5951562473690887e-01, -1.0753021544168213e-01,
          -2.5457892512311098e-01, 2.7175320172577100e-01,
          1.6382933888803691e-01, 1.7056279494093446e-01,
          1.4222509139178138e-01, 1.5454101917545249e-01,
          1.0049421385253725e-01, 2.1473393678058403e-01,
          -1.8269077377252543e-01, 2.5589921728544823e-01,
          -1.1312696124682754e-01, -8.1457015995330714e-02,
          7.4181736872588347e-02, -1.2020352734609845e-01,
          -8.3905750559484307e-02, -3.2409769787032311e-01,
          2.3867865697525986e-01, 1.2589961687706799e-01,
          -1.2880701164693850e-01, -1.0599283580820303e-01,
          8.4879628331436821e-02, 9.5836495392774931e-02,
          -3.2059116909652985e-01, 8.5227868217266273e-02,
          2.5949062030075115e-01, 2.6165147468770628e-01,
          -1.8543562317295662e-01, 2.6864053325844833e-01,
          8.8022794034303908e-02, 1.7328851464026915e-01,
          2.4319672741950882e-01, -3.4020691230020328e-01,
          3.0868716461728951e-01, -1.8442331094071379e-01,
          -2.9881109849590159e-01, 7.8784261057848345e-02,
          -2.8820799695189592e-01, -2.4273988337347271e-01,
          2.5675084201210174e-01, 3.0028272560562319e-01,
          1.1897279198659015e-01, -8.5951542123284597e-02,
          1.0556723928838206e-01, 1.7663037736915813e-01,
          -3.4839708614322212e-01, 7.5295721983283187e-02,
          1.1373198234081081e+00, 2.3571314018188882e-01,
          -5.4992182563540748e-01, 3.0393233825606680e-01,
          1.4459077692611588e-01, 3.5477452334054499e-02,
          3.6915792234721673e-01, -3.2981769845678804e-01,
          -4.8461799086765553e-02, 2.6250959341697494e-01,
          -9.1457816908905615e-02, 1.1119305916543516e+00,
          8.6594372427982014e-02, 1.8475347879415566e-01,
          -4.4594154008956333e-02, -2.4852165803688664e-01,
          1.8111378936464754e-02, -3.6581729220383957e-01,
          4.4921096729534989e-02, -1.8824619760274397e-01,
          -6.8700241399166029e-02, 5.6342857296790183e-01,
          -6.7387627799510644e-02, 2.5107331692012042e-01,
          6.8358492067624010e-02, -5.6902742557374784e-02,
          -5.1345755329558906e-01, -2.6643404958871065e-02,
          9.9584291744049896e-02, 7.5700149100404887e-02,
          -2.4884157469551813e-01, 7.1580275862810516e-02,
          2.4183815575099549e-01, -5.6462380382422572e-01,
          -8.7861425599384674e-02, 2.6938488245859393e-01,
          3.6602193090165708e-01, 5.7419342957325903e-01,
          7.2733428079006013e-02, 5.5683212946168292e-01,
          -4.4839022445461063e-02, -4.2053686866993789e-01,
          -7.4557242119620837e-02, -5.5234034790477754e-02,
          -6.2023233304326020e-02, -1.2656500608997254e+00,
          8.7410485927591236e-02, -1.0793078083953134e-01,
          3.9567406359842065e-02, 5.8974487630438562e-02,
          1.9045012821200610e-01, -6.8164371993932868e-02,
          3.4929187992724448e-01, -2.6019825826934567e-01,
          2.3811888607811454e-01, -5.1357687921613188e-02,
          -2.5684455791955396e-01, -1.2258957367219343e-01,
          -3.6469585332577131e-01, -3.5629913352984759e-02,
          4.8976472419716882e-01, -3.6003236335542937e-01,
          3.7683085284892076e-01, 9.6861795740585191e-02,
          -1.1553516170913070e-01, -5.5712911398785292e-01,
          -3.3742472563111615e-02, -2.7155562871959210e-01,
          -2.9541120489219097e-01, -5.3460793281328567e-01,
          -3.7689630974963734e-01, -3.7640524172256512e-01,
          4.2237266632638645e-02, -2.4351205453415353e-01,
          4.8999970145182531e-01, 5.6640226107728764e-01,
          -6.8099085368053938e-02, 1.1029777400914402e+00,
          -8.7548396973272005e-02, -3.7674069834305496e-01,
          3.4266781092848614e-01, -9.1049489779520598e-02,
          -9.5665915646146474e-02, -3.1275317800361448e-02,
          -3.5413291745088432e-01, -1.9006727434005902e-02,
          5.5563603448923593e-01, -3.2431324395810077e-02,
          -4.4245885834931151e-02, 2.9746424595586196e-01,
          6.8796300957503480e-03, -3.4062482210157494e-02,
          7.7536807291328461e-02, -8.6119703717529611e-02,
          2.2612735016720029e-01, 1.2594183229424630e-01,
          2.9683462538735772e-01, 5.0544311742341030e-02,
          -5.5702650179892801e-02, 7.1935941104989420e-01,
          7.7873657955707221e-01, 3.9603512496576142e-02,
          -1.0698998821125827e+00, -1.1609220917096348e+00,
          6.2390026562484679e-01, -6.1857389723593403e-01,
          1.3489757717180670e-01, 1.9791568738487694e-01,
          8.4300477399777834e-03, 6.3944799890377602e-02,
          2.4923172236020315e+00, 3.0811205940705322e-01,
          8.4516458348120360e-01, -2.4409164488889651e-01,
          5.1810831363392346e-02, -2.4212009555993669e-01,
          2.7214197546922014e-01, -1.2488209724639815e-01,
          5.9975952446857994e-01, -2.6231222296559531e-01,
          1.2110901944288735e-01, 6.2669794134858781e-01,
          1.7408417020308659e-01, 6.2666041888509350e-01,
          -8.4172546875222298e-02, 5.0500391934450783e-01,
          -8.9111739677152246e-01, -4.4554101321626716e-01,
          7.2375397205484115e-01, 2.2457245569300834e+00,
          -3.2497405073108797e-02, -1.8422061281795460e-01,
          3.9744756964018979e-01, -7.3849941348151593e-01,
          -7.1339174905433711e-01, -3.5259429155514387e-03,
          1.7709939661443200e-02, 6.4078764742624950e-01,
          5.2564195897490109e-03, 6.1762794162558055e-01,
          6.1802718628376985e-01, 2.9543256393204438e-02,
          1.1370851905568441e-01, 1.8108662459992036e-01,
          9.4932181076911537e-02, -7.2330363406502818e-01,
          7.2516428881750494e-01, 4.1160347209399775e-02,
          3.2677464890686542e-01, 8.7216164795385831e-01,
          6.1724038378305102e-01, 4.8223593242861379e-01,
          2.7951889305446551e-02, -4.8953889558123792e-01,
          -3.9463873223692804e-02, 1.6298148692706224e-01,
          -5.1652596469686320e-02, -3.4194902960528066e-02,
          -1.3041661587125683e-02, -4.7644896274774466e-02,
          6.3689085769152842e-01, -9.7937766836395601e-02,
          1.1008198776927267e-01, 4.2242558164562405e-02,
          -4.5794587855912305e-01, -4.8128369433467472e-01,
          -1.6859768954340568e-01, -4.5857650814989370e-01,
          -9.3632779074688244e-01, -2.9099872092375318e-02,
          -1.0765623292454429e-01, -1.5566998423214951e-01,
          1.1771046112849792e-01, -6.1462411622804636e-01,
          3.7217982085107998e-01, 6.3035908006003272e-01,
          -1.9357217570644508e-01, 9.6089046682453838e-01,
          4.8349703905312580e-01, -1.9758137325655192e-02,
          8.5263564547911466e-02, -4.2668959328273595e-02,
          1.5038821610461295e+00, 6.3158578160133860e-01,
          4.0443279359999529e-02, -6.6492857497298094e-02,
          6.1853633401106473e-02, 3.9731077278239969e-02,
          -3.7835247828876234e-02, 3.2916249633743122e-01,
          -1.7031867380597882e-01, -8.7915101104249910e-03,
          3.4274924252058012e-02, 5.7084134766093017e-02,
          7.4641032590387624e-01, 1.9801716244664205e-01,
          2.8450896008234600e-01, -1.1246783123012546e-01,
          3.4850147680070342e-01, -9.5255393089107993e-02,
          -3.3003382538680869e-02, -1.1585147292293610e-01,
          4.9297372113504788e-02, -4.5354350673120164e-01,
          -1.1582294421710498e-01, -3.3778412485569002e-02,
          9.2596904419660411e-03, 3.8932940580723691e-01,
          -2.1731373110349111e-01, 4.1969112697038502e-01,
          6.9304328707560359e-01, -3.3945833560296113e-01,
          -2.2886529662798327e-01, -3.8504651193683676e-01,
          5.0378858456333803e-02, 5.7423454727979739e-01,
          8.3253215539302178e-02, 4.0148504086633341e-02,
          -1.2974870052475090e-01, -4.2262935545083341e-01,
          -2.0184464150849304e-02, -1.1225651958611917e+00,
          7.0432866415873235e-02, -1.2570928554614044e-01,
          3.3409224135901305e-03, 5.0613563717550103e-02,
          3.6711165387762745e-01, 2.2570404209766141e-02,
          -7.0795171838110765e-02, 3.1409274674592585e-01,
          1.4007017261314786e-01, -7.8459355237448514e-02,
          -2.6757123662032972e-01, -3.4328511097634390e-01,
          2.9698988564755668e-01, -7.9954277099877424e-01,
          -1.0124982236530702e-01, -5.5441992431263043e-01,
          -6.8572394470741441e-02, -5.5244516853470838e-01,
          3.4791474623709365e-02, 2.8956743154588349e-01,
          -2.1465194567659732e-02, 6.9476728034768495e-02,
          -3.4338384314224302e-01, -6.6267025531185603e-02,
          -2.9314426200592814e-01, 1.7615050064128429e-01,
          -2.7518815610627904e-02, 1.1457048623039505e-01,
          9.8968887952323156e-02, 7.3534387685514888e-02,
          -1.5791114625160374e-01, 4.9519250291856796e-02,
          -5.4988561831303226e-02, 7.7863458242132574e-02,
          1.4097404893638710e-01, 1.3246231365995464e-01,
          -9.1828503955903376e-03, 1.0646390002020970e-01,
          -2.5600050631481286e-01, 2.3769193645343814e-02,
          2.9612297957014949e-02, 1.6598143878501703e-01,
          2.9771331938487555e-01, 3.0404874928484059e-02,
          3.2872953976728597e-02, 4.8836462373230671e-01,
          6.8072143932232321e-02, -1.7776423880485731e-01,
          7.2783583881114555e-02, 1.3591435086376208e-01,
          -1.5210552499033730e-01, 2.8750395848707766e-01,
          -4.3268940217430073e-02, -5.7538371897002705e-01,
          1.1021532447622749e-01, -8.7384077488412093e-02,
          -1.4522356408659534e-01, -2.2246267638105069e-02,
          -2.7086175614403379e-02, -4.1000664666801287e-02,
          1.6867426721624661e+00, 1.7763241130059962e-02,
          -1.4779621129511061e-01, -3.7014213055801110e-01,
          -5.3387734545070620e-03, -1.3623073248109752e-01,
          -3.6782261588269566e-01, -2.7084660131483490e-01,
          -7.2241707720733947e-02, -3.3210119772739066e-01,
          9.3629437708227403e-02, 9.0645236760897308e-04,
          -3.5392186326254960e-02, -1.1507564711587329e-01,
          -2.9381902755848810e-01, 3.9621252830260523e-02,
          6.8048902259791244e-01, -1.1204204646482555e-01,
          -1.8714032813732379e-01, 2.7167646558710501e-01,
          1.9974090458434696e-01, -1.3034227741552704e-01,
          -1.5083114544843043e-01, 1.7241938237137952e-01,
          -6.7720802021858562e-01, 3.7336970184661689e-01,
          -7.6891230107515474e-02, 1.6669491050923912e-01,
          -3.2157684796675412e-01, -1.3757323477334130e-01,
          -1.9669334143236361e-01, 4.9655513960472117e-02,
          9.7046433112324249e-02, 1.9702517991656893e-01,
          -2.7712898952056564e-01, 1.3185096643953995e-01,
          -1.6273152653874992e-01, -1.8003330992954977e-01,
          -2.4686070811897898e-01, -1.8083949260769105e-01,
          -2.6683163105008822e-01, -1.5086309110611110e-01,
          -3.5588211403122427e-01, -2.6147232495218187e-01,
          9.2635494162511531e-02, 1.2256374514533663e-01,
          -1.3571489962743694e-01, -5.9384861868410521e-01,
          -2.5731665238828616e-01, 2.8027068677206585e-01,
          -1.2120477572269570e-01, 3.3573233171808642e-01,
          1.3877603751834505e-01, 2.3168686194495328e-01,
          -2.2448687922511149e-01, -1.9384909510340670e-01,
          -8.0950083017214292e-02, -2.0681254196466220e-01,
          -1.6834153783517011e-01, 5.6778026027930847e-02,
          -2.2897872485137014e-01, -2.8310326636021543e-01,
          6.7988428656746025e-01, 1.5985393379744953e-01,
          -8.2136926945087993e-02, -2.0308978167093972e-01,
          -1.4874678649365680e-01, -8.0263051602601954e-01,
          -4.5704109744034921e-01, -2.7593080659107455e-01,
          -1.8986765216483312e-01, 2.0863675279536270e-01,
          -5.9950941168203686e-01, -2.8168856745984833e-01,
          -2.6838417546467841e-01, -7.4592535190117382e-02,
          6.6060097200778423e-01, -2.6470248406107788e-01,
          -2.1411951625079978e-01, 1.6391953642127330e-01,
          -6.8319129783493737e-01, -9.3012076434522778e-02,
          1.9178175405337472e-01, 1.8987184478394692e-01,
          1.1704600073708246e-01, 9.0779071397397479e-02,
          7.3696807400651942e-01, -2.3126995701216027e-02,
          1.4437296693683746e-01, 6.7626044072356184e-01,
          -7.7490716116818140e-02, 2.0478306825989595e-01,
          -1.8367594210509414e-01, -1.9038849714191086e-01,
          3.6584300176230127e-03, -1.7636132530411314e-01,
          -1.1167893116877382e-01, 1.6060648540162817e-01,
          -6.7049109189569622e-01, 4.4038140742957047e-02,
          -7.8101233307162843e-01, -1.5607414425136129e-01,
          6.6100355722361448e-01, 2.7844344248090280e-01,
          2.0530446122306728e-02, 8.0938148238621999e-02,
          1.2361362306929502e-01, -1.8220438877510275e-01,
          2.9699180871720315e-01, 2.6300895084922793e-01,
          -5.9159038653057452e-02, -1.1913033274172583e-01,
          -1.9052490084312576e-01, 3.7373467563435137e-01,
          -1.1643478252416889e-01, 2.5433845690694018e-01,
          -2.6364225836013738e-01, -1.0325021997008806e-01,
          -1.0103896149935200e-01, 2.3118047993717145e-01,
          7.4968029776543585e-02, -1.6410271552476444e-01,
          -8.5983650011747445e-02, 1.6856004496338581e-01,
          2.3070304074166770e-01, 4.4826343604630259e-01,
          -1.8335046827467580e-01, -1.4697185982113059e-01,
          -1.0144707240542339e-01, -1.0910969468869954e-01,
          -9.3469436968540390e-02, -1.0703630860946778e-01,
          3.1007257464169724e-01, 1.0861645266146240e-01,
          -2.8106564439576520e-01, -2.4930820312208413e-01,
          -8.3559112346787076e-02, 4.2208699311147707e-03,
          2.0143347045718818e-01, -9.7109259764972158e-02,
          -2.8415990484506304e-01, -8.0813318183536528e-02,
          2.0673567625498002e-01, -2.8170968083598685e-01,
          1.1120270894640015e-01, -6.0977291522506458e-02,
          -8.9047359735204848e-02, -6.6036905165682419e-02,
          -2.3096121960682581e-01, 2.9099216716771192e-01,
          -8.9186825840611064e-02, 9.1357634958301195e-02,
          9.5587578518979047e-02, -6.0397757549393277e-02,
          3.1895318910026249e-01, -1.0375880311225698e-01,
          -3.1896858107029402e-01, -8.0681077237686430e-02,
          -1.5065143973843981e-01, 1.5463779067731137e-02,
          2.0997718128758913e-01, -3.0041643015882996e-01,
          1.9864306366705109e-01, 1.1352078429479366e-01,
          -1.0581257439855567e-01, -3.2231601834851770e-01,
          -1.5998978969084104e-01, -9.3330401554835477e-02,
          -1.3199953462480216e-01, -2.7532349580525312e-01,
          2.4274829141424903e-01, 9.6587085366788214e-02,
